tree
version=v4
num_class=3
num_tree_per_iteration=3
label_index=0
max_feature_idx=41
objective=multiclass num_class:3
feature_names=Column_0 Column_1 Column_2 Column_3 Column_4 Column_5 Column_6 Column_7 Column_8 Column_9 Column_10 Column_11 Column_12 Column_13 Column_14 Column_15 Column_16 Column_17 Column_18 Column_19 Column_20 Column_21 Column_22 Column_23 Column_24 Column_25 Column_26 Column_27 Column_28 Column_29 Column_30 Column_31 Column_32 Column_33 Column_34 Column_35 Column_36 Column_37 Column_38 Column_39 Column_40 Column_41
feature_infos=[1:11] [-4.8598606994444449:147.09142348944445] [5.1410576091666664:157.33315012277777] none [0:1] none [0:20] none none none [0:1] [0:1] none none [0:1] [-0.59999999999999998:0.69999999999999996] [0.69999999999999996:0.90000000000000002] [0:21] [0:6] [0:8] [1:21] [0:7] [-0.246:1.7290000000000001] none [-0.97909000000000002:1] [-2.7988:0.65749999999999997] [0:567.49099999999999] none [0:7.9199999999999999] none none none none [26.962468224442034:95.192263018254295] [-10.381954086010097:33.771195773977865] [-12.044366347325971:32.047218079985868] [0:1045.1502746582032] [0:1089.9461303710937] [0:1089.0899658203125] [-1.6448178977903962:3.6249687876469041] [0:29.122157505580358] [-0.34000000000000002:0.34000000000000002]
tree_sizes=743 1044 643 741 842 740 768 846 661 641 826 656 662 850 662 662 948 762 750 931 850 761 966 656 763 950 740 649 949 660 766 948 737 743 952 742 657 1076 742 861 949 767 757 969 642 840 1060 762 747 1022 745 660 843 640 746 1054 742 730 1055 743 729 958 951 663 1057 848 742 966 747 745 1035 872 747 970 851 647 1052 843 823 949 822 650 922 828 744 1137 796 726 1047 922 841 1022 920 747 1058 819 665 1019 830 724 1123 841 748 1022 717 750 999 700 664 952 819 723 1148 818 745 1037 919 752 936 845 757 936 830 644 927 742 756 925 938 644 1010 815 739 926 716 750 1012 703 643 944 823 758 948 826 727 1131 837 814 1004 826 749 1094 798 648 1003 831 819 903 845 819 1110 820 715 904 837 814 997 703 748 812 822 758 989 825 832 918 987 904 925 819 737 922 882 901 1003 903 821 843 1003 718 904 803 906 1015 895 623 1023 838 735 925 902 804 912 998 625 897 885 739 1007 899 710 927 812 721 1012 903 809 930 885 710 917 809 738 927 1009 712 892 884 735 895 729 650 907 909 710 923 894 629 911 705 702 910 889 699 910 807 630 912 878 902 1007 803 704 976 845 716 900 891 630 913 904 628 913 802 634 799 808 610 916 810 606 904 884 611 907 801 702 984 898 728 1002 798 615 915 809 709 927 804 622 895 800 636 793 802 627 908 797 709 850 899 608 897 815 611 791 805 608 1010 814 642 987 805 723 796 716 641 802 814 799 846 703 709 799 896 640 819 784 776 906 715 694 795 788 628 708 791 611 901 788 629 898 800 616 809 706 729 904 708 615 879 878 705 785 612 630 808 728 651 806 793 628 704 801 631 698 698 616 895 692 615 875 797 630 875 798 543 879 796 529 785 699 545 796 801 632 700 699 548 700 798 543 706 613 631 688 798 548 686 688 632 684 714 548 800 792 620 702 712 622 792 735 619 716 710 512 774 734 683 886 600 431 879 791 430 691 707 427 883 696 343 599 602 431 718 697 429 720 693 430 609 514 339 723 525 343 687 692 431 615 643 343 710 514 430 709 702 429 226 427 431 226 705 343 226 515 343 226 605 431 226 427 431 226 604 343 226 699 343 226 697 343 226 705 342 226 515 428 226 700 341 226 226 343 226 226 342 226 226 343 226 226 343 226 226 343 226 226 342 226 226 342 226 226 343 226 226 342 226 226 343 226 226 342 226 226 342 226 226 343 226 226 343 226 226 343 226 226 343 226 226 343 226 226 342 226 226 343 226 226 343 226 226 343 226 226 343 226 226 342 226 226 343 226 226 343 226 226 342 226 226 343 226 226 343 226 226 343 226 226 342 226 226 343 226 226 342 226 226 343 226 226 342 226 226 343 226 226 341 226 226

Tree=0
num_leaves=6
num_cat=0
split_feature=15 25 1 24 33
split_gain=27.6354 14.8816 5.71833 5.35599 2.747
threshold=-0.14999999999999999 0.098229997000000013 46.513538247361119 0.23742000500000002 43.69689073444129
decision_type=2 2 2 2 2
left_child=-1 2 3 -2 -3
right_child=1 4 -4 -5 -6
leaf_value=-1.0040162026959247 -1.0573147740104705 -1.0986123090330304 -1.0102846148644931 -1.1397333712929885 -1.1470812818476881
leaf_weight=6.3768113851547232 4.4431959837675077 3.5079702585935619 2.8985506296157837 3.2787825614213943 19.494687989354134
leaf_count=11 11 11 5 12 70
internal_value=-1.09861 -1.11678 -1.06937 -1.09558 -1.13979
internal_weight=40 33.6232 10.6205 7.72198 23.0027
internal_count=120 109 28 23 81
is_linear=0
shrinkage=1


Tree=1
num_leaves=9
num_cat=0
split_feature=25 22 36 1 22 14 6 1
split_gain=5.68336 4.28547 5.86657 4.1432 2.39863 2.29339 1.51569 1.07112
threshold=-0.028305000999999996 0.092500000000000013 51.195369338989266 -0.14791016111111108 0.053000000000000005 1.0000000180025095e-35 3.5000000000000004 18.294235769305558
decision_type=2 2 2 2 2 2 2 2
left_child=-1 2 -2 -4 -5 6 -3 -7
right_child=1 5 3 4 -6 7 -8 -9
leaf_value=-1.1435939007421678 -1.114261028740718 -1.1347788994432528 -1.0078138615664129 -1.0536624300242865 -1.1016998867280676 -1.0986123090330304 -1.0986123090330304 -1.0618810436448491
leaf_weight=5.8779910802841178 5.0860700607299831 7.4233855009078997 3.7037035077810279 4.7602639645338041 3.6974621117115021 3.387384593486785 3.4051104635000229 2.658627524971962
leaf_count=12 12 20 15 18 11 10 12 10
internal_value=-1.09861 -1.09075 -1.0729 -1.05358 -1.07737 -1.10757 -1.12214 -1.08558
internal_weight=40 34.122 17.2475 12.1614 8.45773 16.8745 10.8285 6.04601
internal_count=120 108 56 44 29 52 32 20
is_linear=0
shrinkage=1


Tree=2
num_leaves=5
num_cat=0
split_feature=15 22 34 15
split_gain=26.8203 9.56762 4.8985 2.91524
threshold=0.25000000000000006 0.072500000000000009 0.85996718715658471 0.35000000000000003
decision_type=2 2 2 2
left_child=-1 2 -2 -3
right_child=1 3 -4 -5
leaf_value=-1.1443245185072888 -1.14164888991515 -1.0765908125586183 -1.066901463385451 -1.0186291682411031
leaf_weight=17.744323074817657 4.2082661986351031 4.7887255847454062 4.2090154588222504 9.0496705770492536
leaf_count=46 13 16 15 30
internal_value=-1.09861 -1.06212 -1.1014 -1.03659
internal_weight=40 22.2557 8.41728 13.8384
internal_count=120 74 28 46
is_linear=0
shrinkage=1


Tree=3
num_leaves=6
num_cat=0
split_feature=15 25 0 33 24
split_gain=24.2915 13.7751 9.32189 2.59735 2.50999
threshold=-0.14999999999999999 0.098229997000000013 5.5000000000000009 43.69689073444129 0.23742000500000002
decision_type=2 2 2 2 2
left_child=-1 2 -2 -3 -4
right_child=1 3 4 -5 -6
leaf_value=0.086587446032636517 0.085394092836110089 0 0.018965497031027602 -0.047337260932071065 -0.040017915986894366
leaf_weight=6.6406018733978263 4.1909294128417951 3.5116564035415676 3.3442238867282867 19.031374663114548 3.2119626551866531
leaf_count=11 7 11 9 70 12
internal_value=0 -0.0174711 0.0275837 -0.0400814 -0.00634243
internal_weight=39.9307 33.2901 10.7471 22.543 6.55619
internal_count=120 109 28 81 21
is_linear=0
shrinkage=0.05


Tree=4
num_leaves=7
num_cat=0
split_feature=15 15 28 34 4 40
split_gain=5.91642 9.31828 5.30024 3.3192 3.13552 1.73719
threshold=-0.14999999999999999 0.45000000000000007 1.2200000000000002 0.85996718715658471 1.0000000180025095e-35 6.6892929077148446
decision_type=2 2 2 2 2 2
left_child=-1 2 4 -4 5 -2
right_child=1 -3 3 -5 -6 -7
leaf_value=-0.044327379177873293 0 -0.0403617923125573 0.075522401649927462 0.013678331080195791 0.036112584583301882 -0.04112211161821841
leaf_weight=6.246436893939971 7.1112846434116381 7.2538481652736655 5.8830146789550763 5.3346986621618271 4.7939352840185157 3.355268269777298
leaf_count=11 19 23 22 19 16 10
internal_value=0 0.00828244 0.0226511 0.0487015 0.00168205 -0.0119145
internal_weight=39.9785 33.732 26.4782 11.2177 15.2605 10.4666
internal_count=120 109 86 41 45 29
is_linear=0
shrinkage=0.05


Tree=5
num_leaves=6
num_cat=0
split_feature=15 15 25 37 28
split_gain=24.6184 8.08357 7.7743 5.74673 1.60088
threshold=0.25000000000000006 0.55000000000000016 0.32693500000000003 246.45826797485356 2.1350000000000002
decision_type=2 2 2 2 2
left_child=-1 2 3 4 -2
right_child=1 -3 -4 -5 -6
leaf_value=-0.044611916347469222 -0.044713464737935214 0.082709329391060168 0.066339602007279938 0.048646460928962354 0
leaf_weight=17.359019100666046 5.7512226700782829 6.3265985846519461 4.8752883076667777 2.9656574726104727 2.6663821786642075
leaf_count=46 18 20 16 10 10
internal_value=0 0.0343705 0.0136418 -0.00713201 -0.0300592
internal_weight=39.9442 22.5851 16.2586 11.3833 8.4176
internal_count=120 74 54 38 28
is_linear=0
shrinkage=0.05


Tree=6
num_leaves=6
num_cat=0
split_feature=36 19 28 24 41
split_gain=18.7098 8.80035 2.14131 2.19063 1.43974
threshold=41.243499755859382 3.5000000000000004 1.0000000180025095e-35 0.49030001500000003 -1.0000000180025095e-35
decision_type=2 2 2 2 2
left_child=4 2 3 -2 -1
right_child=1 -3 -4 -5 -6
leaf_value=0.075589273387638226 0.01420257647091148 0.030065876397432079 -0.046282222886467647 -0.039147566677349144 0.026856696134714361
leaf_weight=5.7903139591217041 3.6143778413534227 6.0195181965827933 15.933627784252165 3.2526869475841522 5.1476348936557752
leaf_count=10 10 15 60 12 13
internal_value=0 -0.0211471 -0.0358316 -0.00767838 0.0553707
internal_weight=39.7582 28.8202 22.8007 6.86706 10.9379
internal_count=120 97 82 22 23
is_linear=0
shrinkage=0.05


Tree=7
num_leaves=7
num_cat=0
split_feature=15 15 22 1 24 39
split_gain=5.4331 8.4503 4.78258 4.29094 2.60169 2.06201
threshold=-0.14999999999999999 0.45000000000000007 0.16150000000000003 -0.14791016111111108 0.32741499000000007 -0.14492438122745446
decision_type=2 2 2 2 2 2
left_child=-1 2 3 -2 -5 -6
right_child=1 -3 -4 4 5 -7
leaf_value=-0.043126472064189986 0.070974964599104892 -0.039139946258987091 -0.014860086142486923 -0.0030953570686815335 0.053872370377801654 0
leaf_weight=6.0799314379692069 5.7393459230661419 7.082994043827056 6.0391246974468222 6.7815550863742855 5.3153828382492074 2.8425377607345554
leaf_count=11 21 23 18 19 19 9
internal_value=0 0.00784941 0.0213381 0.0331334 0.0165581 0.0357627
internal_weight=39.8809 33.8009 26.7179 20.6788 14.9395 8.15792
internal_count=120 109 86 68 47 28
is_linear=0
shrinkage=0.05


Tree=8
num_leaves=5
num_cat=0
split_feature=15 22 34 15
split_gain=22.4773 7.51437 4.19066 2.12518
threshold=0.25000000000000006 0.072500000000000009 0.85996718715658471 0.35000000000000003
decision_type=2 2 2 2
left_child=-1 2 -2 -3
right_child=1 3 -4 -5
leaf_value=-0.043509955521429548 -0.041212657247335562 0.019041843664246536 0.028035417342808684 0.069053351877403607
leaf_weight=16.928224101662636 4.0562781393528002 4.8996401578187934 4.3224489986896515 9.5855187922716123
leaf_count=46 13 16 15 30
internal_value=0 0.0322991 -0.00263083 0.0540974
internal_weight=39.7921 22.8639 8.37873 14.4852
internal_count=120 74 28 46
is_linear=0
shrinkage=0.05


Tree=9
num_leaves=5
num_cat=0
split_feature=15 25 20 33
split_gain=19.8608 8.93047 3.06484 2.45659
threshold=0.075000000000000025 0.098229997000000013 3.5000000000000004 43.69689073444129
decision_type=2 2 2 2
left_child=-1 2 -2 -3
right_child=1 3 -4 -5
leaf_value=0.064140417189054971 0.047108975142917717 0 -0.0056999833374253269 -0.045556165614508884
leaf_weight=9.1604989916086179 4.8549111038446444 3.4666973650455501 4.5443838387727737 17.505054637789726
leaf_count=17 10 11 15 67
internal_value=0 -0.0194728 0.0191538 -0.0379799
internal_weight=39.5315 30.371 9.39929 20.9718
internal_count=120 103 25 78
is_linear=0
shrinkage=0.05


Tree=10
num_leaves=7
num_cat=0
split_feature=15 15 28 18 4 40
split_gain=5.10057 7.73665 4.38207 2.93326 2.67855 1.64056
threshold=-0.14999999999999999 0.45000000000000007 1.2200000000000002 4.5000000000000009 1.0000000180025095e-35 6.6892929077148446
decision_type=2 2 2 2 2 2
left_child=-1 2 4 -4 5 -2
right_child=1 -3 3 -5 -6 -7
leaf_value=-0.0423119408763541 0 -0.038073937078350349 0.05786369463003125 0 0.032462461759689282 -0.040339024128419665
leaf_weight=5.9558972120285025 7.1130763441324252 6.919448345899581 8.6657039821147901 2.8973072767257682 4.9101084470748892 3.3000009655952454
leaf_count=11 19 23 31 10 16 10
internal_value=0 0.00750462 0.0202588 0.0434476 0.000971058 -0.0116677
internal_weight=39.7615 33.8056 26.8862 11.563 15.3232 10.4131
internal_count=120 109 86 41 45 29
is_linear=0
shrinkage=0.05


Tree=11
num_leaves=5
num_cat=0
split_feature=15 22 35 15
split_gain=20.834 6.69501 2.03024 1.74668
threshold=0.25000000000000006 0.072500000000000009 0.44336052992926761 0.35000000000000003
decision_type=2 2 2 2
left_child=-1 2 -2 -3
right_child=1 3 -4 -5
leaf_value=-0.042619529229457526 -0.02973876079716696 0.018350696147972103 0.018169224778909487 0.064578492620018593
leaf_weight=16.549490943551064 4.0625612735748309 4.92346566915512 4.2609783262014389 9.7815207540988904
leaf_count=46 13 16 15 30
internal_value=0 0.0307311 -0.00232133 0.0510178
internal_weight=39.578 23.0285 8.32354 14.705
internal_count=120 74 28 46
is_linear=0
shrinkage=0.05


Tree=12
num_leaves=5
num_cat=0
split_feature=36 19 25 41
split_gain=15.5105 7.67922 4.56968 1.1701
threshold=41.243499755859382 3.5000000000000004 0.084995005500000012 -1.0000000180025095e-35
decision_type=2 2 2 2
left_child=3 2 -2 -1
right_child=1 -3 -4 -5
leaf_value=0.067485603300385083 0.0097762916142280637 0.027249227437043513 -0.045015387952192849 0.023251812683579808
leaf_weight=5.9766137301921844 3.885488495230681 6.0851878374814978 18.054457351565361 5.2408774942159635
leaf_count=10 11 15 71 13
internal_value=0 -0.0199012 -0.0341773 0.0494163
internal_weight=39.2426 28.0251 21.9399 11.2175
internal_count=120 97 82 23
is_linear=0
shrinkage=0.05


Tree=13
num_leaves=7
num_cat=0
split_feature=15 15 22 1 24 39
split_gain=4.72547 7.09087 4.04438 3.74188 2.22982 1.75809
threshold=-0.14999999999999999 0.45000000000000007 0.16150000000000003 -0.14791016111111108 0.32741499000000007 -0.14492438122745446
decision_type=2 2 2 2 2 2
left_child=-1 2 3 -2 -5 -6
right_child=1 -3 -4 4 5 -7
leaf_value=-0.041333446897669684 0.064661104118495863 -0.037075786686035485 -0.014190222000589975 -0.0037156326070095337 0.048339029720692983 0
leaf_weight=5.7961347699165335 5.9127837717533138 6.7544345855712882 5.9615295231342307 6.8078864663839367 5.4742161333560952 2.8622407615184757
leaf_count=11 21 23 18 19 19 9
internal_value=0 0.00716801 0.0192464 0.0299167 0.0143763 0.0319832
internal_weight=39.5692 33.7731 27.0187 21.0571 15.1443 8.33646
internal_count=120 109 86 68 47 28
is_linear=0
shrinkage=0.05


Tree=14
num_leaves=5
num_cat=0
split_feature=15 22 34 15
split_gain=19.1226 5.95768 3.66902 1.51827
threshold=0.25000000000000006 0.072500000000000009 0.85996718715658471 0.35000000000000003
decision_type=2 2 2 2
left_child=-1 2 -2 -3
right_child=1 3 -4 -5
leaf_value=-0.041665206070442634 -0.039551639502832504 0.017107572951057463 0.025673916170159867 0.060597122910415857
leaf_weight=16.108684942126274 3.8969524204731005 4.9653867632150641 4.3876911103725433 9.9320290088653547
leaf_count=46 13 16 15 30
internal_value=0 0.0290653 -0.00213121 0.0479795
internal_weight=39.2907 23.1821 8.28464 14.8974
internal_count=120 74 28 46
is_linear=0
shrinkage=0.05


Tree=15
num_leaves=5
num_cat=0
split_feature=15 25 0 38
split_gain=16.3998 7.84603 6.83141 1.09999
threshold=0.075000000000000025 0.098229997000000013 5.5000000000000009 97.199996948242202
decision_type=2 2 2 2
left_child=-1 2 -2 -3
right_child=1 3 -4 -5
leaf_value=0.057341760530773389 0.069226144596320205 -0.0094088145473084986 -0.014095621864183339 -0.043926277073108727
leaf_weight=9.3610727339982969 3.8297461867332476 5.1905501335859325 5.6296799927949905 14.875388488173483
leaf_count=17 6 18 19 60
internal_value=0 -0.0182719 0.0173941 -0.0363281
internal_weight=38.8864 29.5254 9.45943 20.0659
internal_count=120 103 25 78
is_linear=0
shrinkage=0.05


Tree=16
num_leaves=8
num_cat=0
split_feature=15 15 22 1 15 18 24
split_gain=4.43294 6.49388 3.68544 3.39762 2.05238 1.98755 2.55626
threshold=-0.14999999999999999 0.45000000000000007 0.16150000000000003 -0.14791016111111108 0.35000000000000003 3.5000000000000004 0.34081001000000005
decision_type=2 2 2 2 2 2 2
left_child=-1 2 3 -2 5 6 -5
right_child=1 -3 -4 4 -6 -7 -8
leaf_value=-0.040585072342968626 0.061308956004138083 -0.036099676909757995 -0.013690055419720744 0.0033212657165275759 -0.014260415762592561 0 0.071659588723984285
leaf_weight=5.663994848728179 5.9928997755050686 6.5838841199874869 5.9117357283830634 3.5843406021595019 3.7705093324184409 4.35811647772789 3.4937647581100464
leaf_count=11 21 23 18 10 11 13 13
internal_value=0 0.00685525 0.0182997 0.0284165 0.0135047 0.0248701 0.0410644
internal_weight=39.3592 33.6953 27.1114 21.1996 15.2067 11.4362 7.07811
internal_count=120 109 86 68 47 36 23
is_linear=0
shrinkage=0.05


Tree=17
num_leaves=6
num_cat=0
split_feature=15 22 34 25 1
split_gain=17.7789 5.32714 3.37463 1.38192 1.36432
threshold=0.25000000000000006 0.072500000000000009 0.85996718715658471 0.16548500000000002 -0.14791016111111108
decision_type=2 2 2 2 2
left_child=-1 2 -2 -3 -5
right_child=1 3 -4 4 -6
leaf_value=-0.040889580753641165 -0.038543283464491346 0.0069500897261415145 0.024361905749447597 0.012581031089031917 0.065182192467805947
leaf_weight=15.721217423677443 3.790943995118143 3.3072149008512488 4.4202431738376617 2.9887946844100943 8.7258191704750043
leaf_count=46 13 10 15 10 26
internal_value=0 0.0277709 -0.00178651 0.0454857 0.054098
internal_weight=38.9542 23.233 8.21119 15.0218 11.7146
internal_count=120 74 28 46 36
is_linear=0
shrinkage=0.05


Tree=18
num_leaves=6
num_cat=0
split_feature=15 28 24 26 6
split_gain=14.7522 7.36543 5.46549 1.37748 0.898485
threshold=0.075000000000000025 1.0000000180025095e-35 0.35448000000000007 43.751000000000012 1.0000000180025095e-35
decision_type=2 2 2 2 2
left_child=-1 2 -2 -4 -3
right_child=1 4 3 -5 -6
leaf_value=0.053977588850043494 0.048316890286960068 0 -0.037842658723762003 0.0011041286007681531 -0.043714974174234505
leaf_weight=9.4265473484992963 5.4738106131553668 2.2338166683912304 3.7070708274841309 2.8585110604763031 14.773685306310652
leaf_count=17 11 8 15 8 61
internal_value=0 -0.017693 0.0105859 -0.0173733 -0.0391174
internal_weight=38.4734 29.0469 12.0394 6.56558 17.0075
internal_count=120 103 34 23 69
is_linear=0
shrinkage=0.05


Tree=19
num_leaves=8
num_cat=0
split_feature=15 15 28 18 4 40 28
split_gain=4.10775 6.00194 3.46426 2.26305 2.18815 1.57551 1.00327
threshold=-0.14999999999999999 0.45000000000000007 1.2200000000000002 4.5000000000000009 1.0000000180025095e-35 6.6892929077148446 3.0700000000000007
decision_type=2 2 2 2 2 2 2
left_child=-1 2 4 6 5 -2 -4
right_child=1 -3 3 -5 -6 -7 -8
leaf_value=-0.039690554920537163 0 -0.035260944696037147 0.063313203218014508 0 0.028388330668469366 -0.039835917173973355 0.012621321336530371
leaf_weight=5.4982314109802237 7.0664037019014376 6.4336393475532523 6.0575410425662977 2.8868736624717704 5.0056015849113455 3.2364727258682251 2.8823420703411102
leaf_count=11 19 23 22 10 16 10 9
internal_value=0 0.00656309 0.0174904 0.0377453 7.62525e-05 -0.0114165 0.0500554
internal_weight=39.0671 33.5689 27.1352 11.8268 15.3085 10.3029 8.93988
internal_count=120 109 86 41 45 29 31
is_linear=0
shrinkage=0.05


Tree=20
num_leaves=7
num_cat=0
split_feature=34 37 16 20 26 25
split_gain=9.72631 4.40251 2.64738 1.86219 0.837556 0.20156
threshold=0.62356930592563675 246.45826797485356 0.82500000000000007 6.5000000000000009 20.977000000000004 0.23731499500000003
decision_type=2 2 2 2 2 2
left_child=1 5 3 -2 -4 -1
right_child=2 -3 4 -5 -6 -7
leaf_value=-0.042813618145519032 0.022663469228086944 0.015730677895292509 0.056920623530677943 -0.026141311939693809 0.019101342336831213 -0.01097410804252079
leaf_weight=11.997914150357248 4.549595221877099 4.231069788336753 5.686100572347641 3.2178011387586594 5.8481250107288361 3.0059921592473975
leaf_count=32 15 14 17 12 19 11
internal_value=0 -0.0250277 0.0250809 0 0.0402232 -0.0382048
internal_weight=38.5366 19.235 19.3016 7.7674 11.5342 15.0039
internal_count=120 57 63 27 36 43
is_linear=0
shrinkage=0.05


Tree=21
num_leaves=6
num_cat=0
split_feature=15 25 0 33 24
split_gain=13.4987 9.19331 5.90885 2.88037 1.94056
threshold=-0.14999999999999999 0.098229997000000013 5.5000000000000009 42.647510895604036 0.23742000500000002
decision_type=2 2 2 2 2
left_child=-1 2 -2 -3 -4
right_child=1 3 4 -5 -6
leaf_value=0.061242673622844718 0.064378813613579708 0.0041609385815405313 0.013852085943302389 -0.04312483920076212 -0.037730158444754566
leaf_weight=7.1669055223464957 4.5332615375518817 2.7965457588434246 3.4567714035511017 17.052958071231842 3.0349646508693695
leaf_count=11 7 9 9 72 12
internal_value=0 -0.0144763 0.0206085 -0.0352222 -0.00667715
internal_weight=38.0414 30.8745 11.025 19.8495 6.49174
internal_count=120 109 28 81 21
is_linear=0
shrinkage=0.05


Tree=22
num_leaves=8
num_cat=0
split_feature=15 15 22 24 2 36 26
split_gain=3.7901 5.55626 3.25035 2.81636 1.43911 0.859443 0.168139
threshold=-0.14999999999999999 0.45000000000000007 0.16150000000000003 0.32741499000000007 128.7206787915278 120.4237503051758 133.55600000000004
decision_type=2 2 2 2 2 2 2
left_child=-1 2 3 5 6 -2 -5
right_child=1 -3 -4 4 -6 -7 -8
leaf_value=-0.038773351389788609 -0.0053666760408519832 -0.034464659295541558 -0.013386111337275792 0.064061459045533703 0.0069267220027033885 0.026265325976012773 0.023126533730021659
leaf_weight=5.3182961940765372 6.2169246673584038 6.2853984236717215 5.8521712422370902 5.7373575866222364 3.7009612023830405 2.7979206442832947 2.8602277040481567
leaf_count=11 17 23 18 21 11 9 10
internal_value=0 0.00629504 0.0167345 0.0261963 0.0418386 0.00188856 0.0537401
internal_weight=38.7693 33.451 27.1656 21.3134 12.2985 9.01485 8.59759
internal_count=120 109 86 68 42 26 31
is_linear=0
shrinkage=0.05


Tree=23
num_leaves=5
num_cat=0
split_feature=15 22 34 15
split_gain=15.467 4.54616 2.91068 1.10232
threshold=0.25000000000000006 0.072500000000000009 0.85996718715658471 0.35000000000000003
decision_type=2 2 2 2
left_child=-1 2 -2 -3
right_child=1 3 -4 -5
leaf_value=-0.039479461961875878 -0.0372111270679037 0.014466598535484388 0.021605655804367397 0.052597013059381408
leaf_weight=14.942551225423811 3.6324556469917315 5.0269749015569678 4.4757878631353378 10.10895326733589
leaf_count=46 13 16 15 30
internal_value=0 0.0255355 -0.0018306 0.041752
internal_weight=38.1867 23.2442 8.10824 15.1359
internal_count=120 74 28 46
is_linear=0
shrinkage=0.05


Tree=24
num_leaves=6
num_cat=0
split_feature=15 25 0 24 38
split_gain=12.1786 8.59996 5.38675 1.80834 1.15855
threshold=-0.14999999999999999 0.098229997000000013 5.5000000000000009 0.23742000500000002 97.199996948242202
decision_type=2 2 2 2 2
left_child=-1 2 -2 -4 -3
right_child=1 4 3 -5 -6
leaf_value=0.058191000225378743 0.061487086543532014 -0.0067727421527468386 0.013158221365645562 -0.036831944693943047 -0.042165110348736663
leaf_weight=7.1366441845893851 4.5466665625572222 4.9591961205005672 3.4697300344705582 2.9661358147859573 14.382727116346357
leaf_count=11 7 18 9 12 63
internal_value=0 -0.013975 0.0198285 -0.00626703 -0.034458
internal_weight=37.4611 30.3245 10.9825 6.43587 19.3419
internal_count=120 109 28 21 81
is_linear=0
shrinkage=0.05


Tree=25
num_leaves=8
num_cat=0
split_feature=15 15 6 28 28 24 20
split_gain=3.48518 5.13431 2.02714 3.57651 1.98434 1.05424 0.726046
threshold=-0.14999999999999999 0.35000000000000003 3.5000000000000004 1.1300000000000001 2.2700000000000005 0.35448000000000007 6.5000000000000009
decision_type=2 2 2 2 2 2 2
left_child=-1 2 3 5 6 -2 -3
right_child=1 4 -4 -5 -6 -7 -8
leaf_value=-0.037877341844456847 -0.025427493747339554 -0.037315389095292202 0.05051744122159444 0.043516610823094951 0.0098748782344051673 0.0057653836585891127 0
leaf_weight=5.1324261128902426 4.1989098489284533 7.2326688170433027 5.2403787970542899 5.3439233899116507 3.6195908039808264 5.0800179839134216 2.5687998533248901
leaf_count=11 9 24 19 18 13 16 10
internal_value=0 0.00601046 0.0226535 0.0106946 -0.0167578 -0.00580511 -0.0291182
internal_weight=38.4167 33.2843 19.8632 14.6229 13.4211 9.27893 9.80147
internal_count=120 109 62 43 47 25 34
is_linear=0
shrinkage=0.05


Tree=26
num_leaves=6
num_cat=0
split_feature=15 25 15 37 28
split_gain=14.28 4.29164 4.45384 3.86757 1.28773
threshold=0.25000000000000006 0.32083001000000005 0.55000000000000016 246.45826797485356 2.1350000000000002
decision_type=2 2 2 2 2
left_child=-1 2 3 4 -2
right_child=1 -3 -4 -5 -6
leaf_value=-0.03872282593542329 -0.042293483260417618 0.054151758405955701 0.051434529468812121 0.034885881627095203 0
leaf_weight=14.503419533371924 5.2979346811771411 8.0353373289108259 4.0949047207832328 3.1417615860700607 2.6296187043190002
leaf_count=46 18 24 12 10 10
internal_value=0 0.0243393 0.00665292 -0.00798718 -0.0283154
internal_weight=37.703 23.1996 15.1642 11.0693 7.92755
internal_count=120 74 50 38 28
is_linear=0
shrinkage=0.05


Tree=27
num_leaves=5
num_cat=0
split_feature=15 28 34 6
split_gain=11.0735 6.23661 2.54482 0.928904
threshold=0.075000000000000025 1.0000000180025095e-35 0.72058645293791568 1.0000000180025095e-35
decision_type=2 2 2 2
left_child=-1 2 -2 -3
right_child=1 3 -4 -5
leaf_value=0.046578465657296002 0.027763463486252478 0 -0.018694245917626872 -0.041843641818758909
leaf_weight=9.3328979015350324 7.7262178808450717 2.1367471516132346 4.0338427126407623 13.617155775427817
leaf_count=17 19 8 15 61
internal_value=0 -0.0161682 0.00969673 -0.0369923
internal_weight=36.8469 27.514 11.7601 15.7539
internal_count=120 103 34 69
is_linear=0
shrinkage=0.05


Tree=28
num_leaves=8
num_cat=0
split_feature=15 15 22 1 15 18 24
split_gain=3.20841 4.74274 2.85755 2.73642 1.50607 1.71699 1.69443
threshold=-0.14999999999999999 0.45000000000000007 0.16150000000000003 -0.14791016111111108 0.35000000000000003 3.5000000000000004 0.34081001000000005
decision_type=2 2 2 2 2 2 2
left_child=-1 2 3 -2 5 6 -5
right_child=1 -3 -4 4 -6 -7 -8
leaf_value=-0.037021473697599283 0.05332423124576318 -0.032913696365764543 -0.013040117183457534 0.0027374338117947018 -0.013165085019290477 0 0.060101388652508317
leaf_weight=4.9467969536781302 6.1067405045032528 5.9785929918289176 5.7713247686624518 3.5377120673656481 3.6866834163665763 4.4114075303077698 3.5885789096355438
leaf_count=11 21 23 18 10 11 13 13
internal_value=0 0.00576801 0.0153096 0.0241714 0.0105747 0.0203565 0.0355157
internal_weight=38.0278 33.081 27.1024 21.3311 15.2244 11.5377 7.12629
internal_count=120 109 86 68 47 36 23
is_linear=0
shrinkage=0.05


Tree=29
num_leaves=5
num_cat=0
split_feature=15 22 34 15
split_gain=13.1939 3.79365 2.54766 0.834208
threshold=0.25000000000000006 0.072500000000000009 0.85996718715658471 0.35000000000000003
decision_type=2 2 2 2
left_child=-1 2 -2 -3
right_child=1 3 -4 -5
leaf_value=-0.037977387092398784 -0.036022906472917164 0.0131769824748419 0.019504932562948562 0.047724109479284085
leaf_weight=14.055633276700972 3.4780494719743755 5.0378653556108466 4.5020322054624557 10.09551280736923
leaf_count=46 13 16 15 30
internal_value=0 0.0232686 -0.00174867 0.0380266
internal_weight=37.1691 23.1135 7.98008 15.1334
internal_count=120 74 28 46
is_linear=0
shrinkage=0.05


Tree=30
num_leaves=6
num_cat=0
split_feature=15 25 25 15 25
split_gain=10.1678 6.25139 3.41208 1.15004 0.979151
threshold=0.25000000000000006 -0.096365002499999977 0.11016500000000001 0.075000000000000025 0.32083001000000005
decision_type=2 2 2 2 2
left_child=2 -2 -1 -4 -5
right_child=1 -3 3 4 -6
leaf_value=0.047283497609973468 0.029495759566593317 -0.041253113111748327 0.026275407423131825 0.0026173351593957407 -0.03359743799957484
leaf_weight=9.3344932049512881 3.4483797550201443 14.82144673168659 3.2392767518758756 2.8987009823322296 2.5590102225542068
leaf_count=17 7 67 7 10 12
internal_value=0 -0.0264507 0.0263271 0.000710872 -0.0101638
internal_weight=36.3013 18.2698 18.0315 8.69699 5.45771
internal_count=120 74 46 29 22
is_linear=0
shrinkage=0.05


Tree=31
num_leaves=8
num_cat=0
split_feature=15 15 22 1 15 18 24
split_gain=2.97231 4.3591 2.60794 2.49757 1.36912 1.60124 1.5173
threshold=-0.14999999999999999 0.45000000000000007 0.16150000000000003 -0.14791016111111108 0.35000000000000003 3.5000000000000004 0.34081001000000005
decision_type=2 2 2 2 2 2 2
left_child=-1 2 3 -2 5 6 -5
right_child=1 -3 -4 4 -6 -7 -8
leaf_value=-0.036280350028467544 0.050923741157835503 -0.032101666276621962 -0.012493993940862711 0.0025226560559210983 -0.012609259860075137 0 0.05735109889052379
leaf_weight=4.7804659605026236 6.1258958876132992 5.8142169415950766 5.710223361849784 3.5328768342733401 3.6553395092487326 4.4123196303844452 3.5849789679050446
leaf_count=11 21 23 18 10 11 13 13
internal_value=0 0.00552885 0.0146361 0.0230973 0.00997681 0.0193336 0.0340132
internal_weight=37.6163 32.8359 27.0216 21.3114 15.1855 11.5302 7.11786
internal_count=120 109 86 68 47 36 23
is_linear=0
shrinkage=0.05


Tree=32
num_leaves=6
num_cat=0
split_feature=15 25 15 37 28
split_gain=12.2166 3.74478 3.78589 3.47679 1.18775
threshold=0.25000000000000006 0.32083001000000005 0.55000000000000016 246.45826797485356 2.1350000000000002
decision_type=2 2 2 2 2
left_child=-1 2 3 4 -2
right_child=1 -3 -4 -5 -6
leaf_value=-0.0372803247951747 -0.0414677850501394 0.050068733400993208 0.04695787135374873 0.032194399071324938 0
leaf_weight=13.618402183055876 5.1378970295190829 8.030384957790373 4.0773703455924979 3.144862100481987 2.6165837794542313
leaf_count=46 18 24 12 10 10
internal_value=0 0.0222849 0.00549593 -0.00802774 -0.0277251
internal_weight=36.6255 23.0071 14.9767 10.8993 7.75448
internal_count=120 74 50 38 28
is_linear=0
shrinkage=0.05


Tree=33
num_leaves=6
num_cat=0
split_feature=15 36 15 28 24
split_gain=9.36294 3.34639 3.02067 4.25059 0.377136
threshold=0.25000000000000006 77.455750274658214 -0.14999999999999999 0.42000000000000004 0.55786500000000017
decision_type=2 2 2 2 2
left_child=2 -2 -1 -4 -5
right_child=1 -3 3 4 -6
leaf_value=0.051536051395995208 0.0030324477590683557 -0.040227206838377626 0.036697802992056612 -0.036525165566652897 0
leaf_weight=6.9013758897781399 5.3573675304651287 12.41931116580963 5.861977666616438 2.8686769604682922 2.2536238580942154
leaf_count=11 16 58 13 13 9
internal_value=0 -0.0258475 0.0252468 0.00615797 -0.0240382
internal_weight=35.6623 17.7767 17.8857 10.9843 5.1223
internal_count=120 74 46 35 22
is_linear=0
shrinkage=0.05


Tree=34
num_leaves=8
num_cat=0
split_feature=25 15 15 22 24 40 39
split_gain=2.77532 2.82765 3.14878 2.25648 1.69807 1.2694 1.00142
threshold=-1.0000000180025095e-35 0.45000000000000007 -0.14999999999999999 0.16150000000000003 0.22098499500000005 5.502931049891882 -0.39377337772707005
decision_type=2 2 2 2 2 2 2
left_child=-1 2 -2 4 -4 6 -6
right_child=1 -3 3 -5 5 -7 -8
leaf_value=-0.032671667081593796 -0.03236928931395016 -0.028725760548419601 0 -0.0072070006262234801 0.06123000853968899 0.00064718902451526043 0.020180150241373016
leaf_weight=5.3927785754203788 2.9665402770042482 4.5416647344827643 4.7219311743974748 4.9028427898883811 5.7709711492061686 3.4295813143253318 5.4597454071044833
leaf_count=14 7 19 14 16 21 11 18
internal_value=0 0.00580597 0.0125589 0.0191826 0.0271439 0.035498 0.0438345
internal_weight=37.1861 31.7933 27.2516 24.2851 19.3822 14.6603 11.2307
internal_count=120 106 87 80 64 50 39
is_linear=0
shrinkage=0.05


Tree=35
num_leaves=6
num_cat=0
split_feature=15 25 15 40 28
split_gain=11.2484 3.40251 3.44295 3.18981 1.1253
threshold=0.25000000000000006 0.32083001000000005 0.55000000000000016 6.6892929077148446 2.1350000000000002
decision_type=2 2 2 2 2
left_child=-1 2 3 4 -2
right_child=1 -3 -4 -5 -6
leaf_value=-0.036585340651461927 -0.040655872194814369 0.047755791523374121 0.044778003762184035 0.030304162759476356 0
leaf_weight=13.166674822568892 5.0213169157505053 8.0068213641643506 4.0496428608894339 3.157288447022438 2.6095677316188812
leaf_count=46 18 24 12 10 10
internal_value=0 0.0212529 0.00505381 -0.00783602 -0.0270382
internal_weight=36.0113 22.8446 14.8378 10.7882 7.63088
internal_count=120 74 50 38 28
is_linear=0
shrinkage=0.05


Tree=36
num_leaves=5
num_cat=0
split_feature=15 25 25 37
split_gain=8.55439 5.63813 3.03509 0.441068
threshold=0.25000000000000006 -0.096365002499999977 0.30648501000000006 51.838175811767591
decision_type=2 2 2 2
left_child=2 -2 3 -1
right_child=1 -3 -4 -5
leaf_value=0.045734435521532064 0.02744180999991995 -0.040123672152395345 -0.008430140802614991 0.015659659781175003
leaf_weight=8.2061506658792513 3.4312399923801449 13.878318786621092 4.1829690486192694 5.326851710677146
leaf_count=15 7 67 16 15
internal_value=0 -0.0252136 0.0240657 0.0359319
internal_weight=35.0255 17.3096 17.716 13.533
internal_count=120 74 46 30
is_linear=0
shrinkage=0.05


Tree=37
num_leaves=9
num_cat=0
split_feature=25 15 15 36 39 37 39 40
split_gain=2.61397 2.58597 2.21875 2.09758 1.57843 1.8565 1.35616 0.15074
threshold=-1.0000000180025095e-35 0.45000000000000007 -1.0000000180025095e-35 355.11270675659188 -0.39377337772707005 149.67647903442386 -0.063413743938382464 3.4035257354881741
decision_type=2 2 2 2 2 2 2 2
left_child=-1 2 -2 4 7 6 -6 -4
right_child=1 -3 3 -5 5 -7 -8 -9
leaf_value=-0.032051531274885928 -0.02366857282707626 -0.027802139581342374 0.049871807236052543 -0.013635983916908456 -0.025899356435720028 0.036467521712171588 0.015911881156728289 0.017785759741707124
leaf_weight=5.2680217027664176 3.1330026090145173 4.4059626758098593 5.79478459060193 3.4156333804130545 3.9440550804138184 3.8483050167560577 3.0595425963401741 3.8769685924053192
leaf_count=14 8 19 21 11 10 14 10 13
internal_value=0 0.00568437 0.0121366 0.0179414 0.0244495 0.00817399 -0.00414778 0.039882
internal_weight=36.7463 31.4783 27.0723 23.9393 20.5237 10.8519 7.0036 9.67175
internal_count=120 106 87 79 68 34 20 34
is_linear=0
shrinkage=0.05


Tree=38
num_leaves=6
num_cat=0
split_feature=15 25 15 22 2
split_gain=10.3966 3.1269 3.17742 1.2272 0.00129194
threshold=0.25000000000000006 0.32083001000000005 0.35000000000000003 0.088500000000000009 72.308503901388903
decision_type=2 2 2 2 2
left_child=-1 2 -2 -4 -3
right_child=1 4 3 -5 -6
leaf_value=-0.035915289140470534 -0.025578443830957139 0.021330035985370682 0 0.03978053405331599 0.056256630848538082
leaf_weight=12.730070829391478 4.9090162217617062 3.1889747679233542 4.7898212373256666 4.9899575114250183 4.7803822159767151
leaf_count=46 19 10 16 15 14
internal_value=0 0.0203685 0.00465506 0.0224667 0.0458163
internal_weight=35.3882 22.6582 14.6888 9.77978 7.96936
internal_count=120 74 50 31 24
is_linear=0
shrinkage=0.05


Tree=39
num_leaves=7
num_cat=0
split_feature=36 34 0 1 28 26
split_gain=7.7376 5.68416 1.41155 1.13065 0.149726 0.27756
threshold=104.10567474365236 0.62356930592563675 9.5000000000000018 6.0222934100000005 2.9000000000000008 200.83400000000003
decision_type=2 2 2 2 2 2
left_child=1 3 4 -1 5 -2
right_child=2 -3 -4 -5 -6 -7
leaf_value=0.0065084543085152345 -0.039285137151261973 -0.023698414902981604 0.00060568351391061511 0.048227106346846016 -0.0027050044432243583 -0.001528891994049864
leaf_weight=3.7620428055524853 9.6120285689830798 4.3617059737443915 2.5410413146018973 9.9165975898504239 2.2076115161180487 2.0317158848047248
leaf_count=11 48 18 8 18 9 8
internal_value=0 0.0221866 -0.0251292 0.0386981 -0.0316127 -0.034895
internal_weight=34.4327 18.0403 16.3924 13.6786 13.8514 11.6437
internal_count=120 47 73 29 65 56
is_linear=0
shrinkage=0.05


Tree=40
num_leaves=8
num_cat=0
split_feature=25 15 15 36 22 1 26
split_gain=2.665 2.33721 1.99384 1.88935 1.6045 1.93634 1.38624
threshold=-0.028305000999999996 0.45000000000000007 -1.0000000180025095e-35 355.11270675659188 0.16150000000000003 -0.14791016111111108 20.977000000000004
decision_type=2 2 2 2 2 2 2
left_child=-1 2 -2 4 5 -4 -7
right_child=1 -3 3 -5 -6 6 -8
leaf_value=-0.036043571760696308 -0.023026928655830649 -0.027051875548529697 0.057509971588227515 -0.013392249434567589 -0.0021219828448148458 0 0.029463711960204454
leaf_weight=4.3445551693439475 3.0719060599803951 4.293648660182952 4.9156791567802527 3.4013389199972144 3.530742570757865 5.2679103314876539 7.5335606038570404
leaf_count=12 8 19 18 11 11 16 25
internal_value=0 0.00525959 0.0112421 0.0165987 0.022611 0.0289273 0.0156532
internal_weight=36.3593 32.0148 27.7211 24.6492 21.2479 17.7172 12.8015
internal_count=120 108 89 81 70 59 41
is_linear=0
shrinkage=0.05


Tree=41
num_leaves=6
num_cat=0
split_feature=15 22 34 34 28
split_gain=9.66302 2.71495 2.05204 0.619544 0.0974368
threshold=0.25000000000000006 0.072500000000000009 0.85996718715658471 0.34282088924615556 0.64000000000000012
decision_type=2 2 2 2 2
left_child=-1 2 -2 -3 -5
right_child=1 3 -4 4 -6
leaf_value=-0.035308748341459341 -0.034111251833960236 0.0069789904415063818 0.016753401828564891 0.020314601390460985 0.049618947910962337
leaf_weight=12.330987840890883 3.2276703715324429 4.1345151513814917 4.4512312263250351 4.6505223363637906 6.0142455101013184
leaf_count=46 13 13 15 15 18
internal_value=0 0.0195843 -0.00157637 0.0321787 0.0394702
internal_weight=34.8092 22.4782 7.6789 14.7993 10.6648
internal_count=120 74 28 46 33
is_linear=0
shrinkage=0.05


Tree=42
num_leaves=6
num_cat=0
split_feature=15 25 0 33 26
split_gain=7.51615 6.06652 3.63257 2.61916 1.3422
threshold=-0.14999999999999999 0.098229997000000013 5.5000000000000009 42.647510895604036 43.751000000000012
decision_type=2 2 2 2 2
left_child=-1 2 -2 -3 -4
right_child=1 3 4 -5 -6
leaf_value=0.047229888444038304 0.050803150011378341 0.007273358372576518 0.0091751981650053261 -0.039938719468221313 -0.03500000603843996
leaf_weight=6.556277096271514 4.4194977283477801 2.5996499061584499 3.588739812374115 14.16439478099346 2.5305863618850708
leaf_count=11 7 9 10 72 11
internal_value=0 -0.0119946 0.0161088 -0.0311352 -0.00534232
internal_weight=33.8591 27.3029 10.5388 16.764 6.11933
internal_count=120 109 28 81 21
is_linear=0
shrinkage=0.05


Tree=43
num_leaves=8
num_cat=0
split_feature=15 15 2 6 28 2 1
split_gain=2.29378 3.18793 2.08588 1.70636 2.48666 0.709176 0.0211331
threshold=-0.14999999999999999 0.35000000000000003 48.09292773138889 3.5000000000000004 1.1300000000000001 91.918407688055566 20.581548134861116
decision_type=2 2 2 2 2 2 2
left_child=-1 3 -3 4 5 -2 -4
right_child=1 2 6 -5 -6 -7 -8
leaf_value=-0.033933294765385286 -0.022109550462248873 0.017885067661974337 -0.034145013483370901 0.042919620442216366 0.034491767081249951 0.0021739917698566182 -0.0096748763292343679
leaf_weight=4.2248661816120139 4.4143221080303245 2.864185467362403 5.3671235591173154 5.2867238074541083 5.2795203328132621 4.6202608942985535 3.8885897397994995
leaf_count=11 12 11 21 19 18 13 15
internal_value=0 0.00486941 -0.0140958 0.0178773 0.00666024 -0.00706631 -0.0267499
internal_weight=35.9456 31.7207 12.1199 19.6008 14.3141 9.03458 9.25571
internal_count=120 109 47 62 43 25 36
is_linear=0
shrinkage=0.05


Tree=44
num_leaves=5
num_cat=0
split_feature=15 25 15 22
split_gain=9.06291 2.75973 2.87252 0.977481
threshold=0.25000000000000006 0.32083001000000005 0.35000000000000003 0.088500000000000009
decision_type=2 2 2 2
left_child=-1 2 -2 -4
right_child=1 -3 3 -5
leaf_value=-0.034766514730026558 -0.024948259316791739 0.043075418796573013 0 0.036825194911404277
leaf_weight=11.955555751919745 4.8171843439340618 7.8523508310317984 4.6860365420579893 4.9098740518093109
leaf_count=46 19 24 16 15
internal_value=0 0.0190137 0.00397569 0.0211816
internal_weight=34.221 22.2654 14.4131 9.59591
internal_count=120 74 50 31
is_linear=0
shrinkage=0.05


Tree=45
num_leaves=7
num_cat=0
split_feature=36 34 16 19 1 33
split_gain=6.75753 4.2908 1.65754 1.71165 1.0231 0.579237
threshold=104.10567474365236 0.46400153885990597 0.72500000000000009 4.5000000000000009 6.0222934100000005 77.49565787200801
decision_type=2 2 2 2 2 2
left_child=1 4 -2 -4 -1 -3
right_child=2 5 3 -5 -6 -7
leaf_value=0.0061839270370355826 0.0074692163089551261 0 -0.039111811472214153 0.00018982515136068342 0.047094399169071065 -0.031234928826767167
leaf_weight=3.733419910073283 2.1952360570430747 2.5149798095226279 11.373449102044104 2.0298340469598761 8.7749680876731855 2.5034464597702026
leaf_count=11 7 8 60 6 16 12
internal_value=0 0.0208154 -0.0242825 -0.0313511 0.0370124 -0.0146056
internal_weight=33.1253 17.5268 15.5985 13.4033 12.5084 5.01843
internal_count=120 47 73 66 27 20
is_linear=0
shrinkage=0.05


Tree=46
num_leaves=9
num_cat=0
split_feature=25 22 1 35 28 24 35 20
split_gain=2.107 1.66936 3.11391 1.37528 1.44434 1.00775 0.750278 0.608918
threshold=-1.0000000180025095e-35 0.092500000000000013 -0.14791016111111108 1.5895852611659829 1.2200000000000002 0.32741499000000007 -2.1650867878336788 5.5000000000000009
decision_type=2 2 2 2 2 2 2 2
left_child=-1 2 -2 4 6 -4 -3 -7
right_child=1 3 5 -5 -6 7 -8 -9
leaf_value=-0.030002159188546759 0.052619214783023553 -0.024940868727697178 -0.013686424871511879 -0.027331540119325728 0.034915172794941329 0.027854551695384779 0.0045486456541928245 0
leaf_weight=4.8530336767435065 4.3145076930522945 3.262607902288436 4.9278553277254122 5.0896741449832907 2.7032029628753662 3.9130133092403412 3.2704572528600684 3.1405097544193268
leaf_count=14 16 11 15 18 10 14 12 10
internal_value=0 0.00513202 0.0164778 -0.00606566 0.00314247 0.00106609 -0.00656338 0.0149148
internal_weight=35.4749 30.6218 16.2959 14.3259 9.23627 11.9814 6.53307 7.05352
internal_count=120 106 55 51 33 39 23 24
is_linear=0
shrinkage=0.05


Tree=47
num_leaves=6
num_cat=0
split_feature=15 15 36 1 33
split_gain=8.38774 2.37107 3.7504 3.31124 0.70029
threshold=0.25000000000000006 0.55000000000000016 104.10567474365236 1.0000000180025095e-35 55.901084434580845
decision_type=2 2 2 2 2
left_child=-1 2 -2 -4 -5
right_child=1 -3 3 4 -6
leaf_value=-0.034182947563921755 -0.032493605598466077 0.044119038270819234 -0.016168320533891726 0.0076570974003113291 0.051459120560747487
leaf_weight=11.554153099656103 4.1113131344318417 6.4625810384750357 3.1732631772756568 2.9610360413789731 5.3488092124462128
leaf_count=46 14 20 13 11 16
internal_value=0 0.0182155 0.00567499 0.0216614 0.0391006
internal_weight=33.6112 22.057 15.5944 11.4831 8.30985
internal_count=120 74 54 40 27
is_linear=0
shrinkage=0.05


Tree=48
num_leaves=6
num_cat=0
split_feature=15 28 24 19 6
split_gain=6.46397 5.41244 2.82206 2.17136 0.963365
threshold=-0.14999999999999999 1.0000000180025095e-35 0.34081001000000005 3.5000000000000004 1.0000000180025095e-35
decision_type=2 2 2 2 2
left_child=-1 2 -2 -4 -3
right_child=1 4 3 -5 -6
leaf_value=0.044754451882520273 0.036029469400849737 0 -0.035226365091225835 0.018968712916978731 -0.039096360548423421
leaf_weight=6.2693353891372672 6.0249667614698428 1.90909744799137 3.8729802072048187 2.7812114804983139 11.615696266293524
leaf_count=11 12 8 19 7 63
internal_value=0 -0.0113732 0.0105937 -0.0089279 -0.0337281
internal_weight=32.4733 26.204 12.6792 6.65419 13.5248
internal_count=120 109 38 26 71
is_linear=0
shrinkage=0.05


Tree=49
num_leaves=9
num_cat=0
split_feature=15 15 39 18 20 0 24 24
split_gain=2.01688 2.7634 1.89611 1.74273 1.54225 1.30261 0.795059 0.0121478
threshold=-0.14999999999999999 0.45000000000000007 -0.47669022051596582 3.5000000000000004 4.5000000000000009 6.5000000000000009 0.58229500000000012 0.61719000000000013
decision_type=2 2 2 2 2 2 2 2
left_child=-1 2 4 5 -2 -4 -6 -5
right_child=1 -3 3 7 6 -7 -8 -9
leaf_value=-0.032839019068147138 0 -0.027878379624099583 0 -0.00472132565076714 0.056425242982378401 0.037595941721094941 0.0076437759486658145 -0.02633273322594731
leaf_weight=3.9588615000247946 3.2144284844398516 4.9423828870058051 4.9760820418596285 4.1899855881929389 4.3200221061706543 3.7578967958688736 2.7356652170419693 2.92149418592453
leaf_count=11 10 23 15 11 16 14 10 10
internal_value=0 0.00462021 0.0118071 0 0.0284522 0.0157681 0.0413763 -0.0173083
internal_weight=35.0168 31.058 26.1156 15.8455 10.2701 8.73398 7.05569 7.11148
internal_count=120 109 86 50 36 29 26 21
is_linear=0
shrinkage=0.05


Tree=50
num_leaves=6
num_cat=0
split_feature=15 25 15 34 2
split_gain=7.81307 2.47669 2.52731 0.805752 0.000805295
threshold=0.25000000000000006 0.32083001000000005 0.35000000000000003 0.77633343108749397 72.308503901388903
decision_type=2 2 2 2 2
left_child=-1 2 -2 -4 -3
right_child=1 4 3 -5 -6
leaf_value=-0.033664480192043184 -0.024300422958820251 0.017125316004541435 0 0.031191159691579609 0.050250490413090078
leaf_weight=11.198149517178534 4.7104109525680569 3.0932540893554679 3.7118563354015333 5.6801099330186844 4.594603419303894
leaf_count=46 19 10 13 18 14
internal_value=0 0.0175321 0.00304109 0.0194992 0.0405235
internal_weight=32.9884 21.7902 14.1024 9.39197 7.68786
internal_count=120 74 50 31 24
is_linear=0
shrinkage=0.05


Tree=51
num_leaves=5
num_cat=0
split_feature=15 25 25 35
split_gain=6.0088 4.32025 2.19796 0.810102
threshold=0.25000000000000006 -0.096365002499999977 0.30648501000000006 -0.2993235983936261
decision_type=2 2 2 2
left_child=2 -2 3 -1
right_child=1 -3 -4 -5
leaf_value=0.0096787905853484985 0.022354552237043818 -0.03799572505150757 -0.007801756237992858 0.043267105754756077
leaf_weight=5.5721460431814203 3.3105536997318294 11.854047946631903 3.861361786723136 7.1691684424877211
leaf_count=16 7 67 16 14
internal_value=0 -0.0231229 0.0202668 0.0307146
internal_weight=31.7673 15.1646 16.6027 12.7413
internal_count=120 74 46 30
is_linear=0
shrinkage=0.05


Tree=52
num_leaves=7
num_cat=0
split_feature=15 15 22 2 26 39
split_gain=1.84735 2.52793 1.79551 1.80464 1.20888 1.6276
threshold=-0.14999999999999999 0.45000000000000007 0.16150000000000003 48.09292773138889 20.977000000000004 -0.39377337772707005
decision_type=2 2 2 2 2 2
left_child=-1 2 3 -2 -5 -6
right_child=1 -3 -4 4 5 -7
leaf_value=-0.032141493078708804 0.047340118006953084 -0.02714688812246617 -0.011508726714248291 -0.0065230003967139119 0.039181430381015687 0
leaf_weight=3.7934865653514853 4.547300338745127 4.795657977461814 5.4056699723005286 5.848002925515174 5.1125990003347441 5.0206117928028045
leaf_count=11 17 23 18 17 19 15
internal_value=0 0.00439718 0.0112723 0.0185098 0.00850842 0.0196052
internal_weight=34.5233 30.7298 25.9342 20.5285 15.9812 10.1332
internal_count=120 109 86 68 51 34
is_linear=0
shrinkage=0.05


Tree=53
num_leaves=5
num_cat=0
split_feature=15 25 15 22
split_gain=7.25071 2.29649 2.33255 0.771785
threshold=0.25000000000000006 0.32083001000000005 0.35000000000000003 0.088500000000000009
decision_type=2 2 2 2
left_child=-1 2 -2 -4
right_child=1 -3 3 -5
leaf_value=-0.033103766701499247 -0.02361677119591804 0.039161105366114619 0 0.032822294023179092
leaf_weight=10.815825760364531 4.6436634212732342 7.592289298772811 4.5718826502561551 4.7491504848003387
leaf_count=46 19 24 16 15
internal_value=0 0.0168714 0.00278328 0.0187003
internal_weight=32.3728 21.557 13.9647 9.32103
internal_count=120 74 50 31
is_linear=0
shrinkage=0.05


Tree=54
num_leaves=6
num_cat=0
split_feature=15 28 24 26 6
split_gain=5.57372 4.88357 2.43251 1.07893 0.933386
threshold=-0.14999999999999999 1.0000000180025095e-35 0.35448000000000007 59.002500000000005 1.0000000180025095e-35
decision_type=2 2 2 2 2
left_child=-1 2 -2 -4 -3
right_child=1 4 3 -5 -6
leaf_value=0.042582125833954876 0.03044683272468925 0 -0.032104886918577595 0.0063484359118620133 -0.038359898956724675
leaf_weight=5.9617486000061062 6.9840734153985995 1.8653697669506062 3.1748549193143845 2.2410523891448975 10.92770581692457
leaf_count=11 15 8 17 6 63
internal_value=0 -0.0107867 0.0100329 -0.0118343 -0.0328268
internal_weight=31.1548 25.1931 12.4 5.41591 12.7931
internal_count=120 109 38 23 71
is_linear=0
shrinkage=0.05


Tree=55
num_leaves=9
num_cat=0
split_feature=25 15 15 36 22 26 28 36
split_gain=1.97408 1.5894 1.22764 1.58276 1.32819 1.49679 1.39055 0.239088
threshold=-0.028305000999999996 0.45000000000000007 1.0000000180025095e-35 355.11270675659188 0.16150000000000003 20.977000000000004 2.9000000000000008 114.48724956512453
decision_type=2 2 2 2 2 2 2 2
left_child=-1 2 -2 4 5 7 -7 -4
right_child=1 -3 3 -5 -6 6 -8 -9
leaf_value=-0.033362959271135521 -0.01482932465509779 -0.023542808691786835 -0.0012564664672192853 -0.013312699315585692 -0.0019683118793846258 0.049741888907740783 0 0.014615229304582041
leaf_weight=3.7554199099540702 3.3855678141117158 3.7810228615999213 3.3454936146736243 3.2759172469377509 3.435673013329505 7.4275785833597165 2.8679783344268799 2.8007308095693588
leaf_count=12 10 19 10 11 11 28 9 10
internal_value=0 0.00460035 0.00962173 0.0143206 0.0201699 0.0262912 0.0381737 0.00209178
internal_weight=34.0754 30.32 26.5389 23.1534 19.8775 16.4418 10.2956 6.14622
internal_count=120 108 89 79 68 57 37 20
is_linear=0
shrinkage=0.05


Tree=56
num_leaves=6
num_cat=0
split_feature=15 25 15 24 2
split_gain=6.7537 2.12964 2.17767 0.739512 0.0202786
threshold=0.25000000000000006 0.32083001000000005 0.35000000000000003 0.38777500000000004 72.308503901388903
decision_type=2 2 2 2 2
left_child=-1 2 -2 -4 -3
right_child=1 4 3 -5 -6
leaf_value=-0.032591574148476347 -0.023041592631344438 0.014797286757286452 0 0.030354278755496851 0.047465766974681238
leaf_weight=10.469156220555307 4.5877451598644283 3.0341391563415518 4.0020725131034833 5.2119624614715576 4.4521261751651764
leaf_count=46 19 10 13 18 14
internal_value=0 0.0162641 0.00254719 0.0180828 0.0378904
internal_weight=31.7572 21.288 13.8018 9.21403 7.48627
internal_count=120 74 50 31 24
is_linear=0
shrinkage=0.05


Tree=57
num_leaves=6
num_cat=0
split_feature=36 15 33 36 33
split_gain=5.27015 3.03232 2.98763 2.3339 0.780871
threshold=104.10567474365236 -0.14999999999999999 52.946788732445746 41.243499755859382 80.833957935606165
decision_type=2 2 2 2 2
left_child=2 -2 -1 -4 -3
right_child=1 4 3 -5 -6
leaf_value=0.042979057427530193 0.031783516818076278 -0.038167208026244522 0.018510068732286177 -0.033008178039977291 0
leaf_weight=7.0637641847133699 1.6814272403717065 10.296493992209429 6.0462754368782026 3.3224423602223396 2.047599993646144
leaf_count=14 3 60 15 18 10
internal_value=0 -0.0229062 0.0186718 0 -0.0325601
internal_weight=30.458 14.0255 16.4325 9.36872 12.3441
internal_count=120 73 47 33 70
is_linear=0
shrinkage=0.05


Tree=58
num_leaves=9
num_cat=0
split_feature=25 15 15 36 22 26 28 36
split_gain=1.82317 1.45317 1.09498 1.49064 1.24832 1.37293 1.27962 0.225028
threshold=-0.028305000999999996 0.45000000000000007 1.0000000180025095e-35 355.11270675659188 0.16150000000000003 20.977000000000004 2.9000000000000008 114.48724956512453
decision_type=2 2 2 2 2 2 2 2
left_child=-1 2 -2 4 5 7 -7 -4
right_child=1 -3 3 -5 -6 6 -8 -9
leaf_value=-0.032720265371694333 -0.013986201904321208 -0.022842166910646163 -0.0011542983223463 -0.013156086786416447 -0.0019575190961322801 0.048069345782825165 0 0.014182008326950733
leaf_weight=3.6226662248373023 3.2996892035007539 3.6834907233715048 3.3232876062393286 3.254631742835044 3.4169586896896353 7.3285950273275358 2.8631071746349335 2.7903685122728348
leaf_count=12 10 19 10 11 11 28 9 10
internal_value=0 0.00436362 0.00919731 0.0136562 0.0193861 0.0253674 0.0368376 0.00193762
internal_weight=33.5828 29.9601 26.2766 22.9769 19.7223 16.3054 10.1917 6.11366
internal_count=120 108 89 79 68 57 37 20
is_linear=0
shrinkage=0.05


Tree=59
num_leaves=6
num_cat=0
split_feature=15 25 15 24 24
split_gain=6.29454 1.98684 1.99649 0.669145 0.021976
threshold=0.25000000000000006 0.32083001000000005 0.35000000000000003 0.38777500000000004 0.66045000000000009
decision_type=2 2 2 2 2
left_child=4 2 -2 -4 -1
right_child=1 -3 3 -5 -6
leaf_value=-0.03576816464591364 -0.022292382837214256 0.036789050861030577 0 0.029059516467343408 -0.0039915667340245748
leaf_weight=8.1202319562435168 4.5096693485975292 7.3859439492225638 3.9757362306117994 5.1696551293134689 1.9914128184318531
leaf_count=37 19 24 13 18 9
internal_value=0 0.0157455 0.002361 0.0173315 -0.0320586
internal_weight=31.1526 21.041 13.6551 9.14539 10.1116
internal_count=120 74 50 31 46
is_linear=0
shrinkage=0.05


Tree=60
num_leaves=6
num_cat=0
split_feature=36 15 33 36 0
split_gain=4.87905 2.85748 2.76899 2.16274 0.766062
threshold=104.10567474365236 -0.14999999999999999 52.946788732445746 41.243499755859382 9.5000000000000018
decision_type=2 2 2 2 2
left_child=2 -2 -1 -4 -3
right_child=1 4 3 -5 -6
leaf_value=0.041554863967742189 0.030795929281307005 -0.037276223171991189 0.017682518894977167 -0.032460706693414783 0
leaf_weight=6.9714576750993791 1.6499188542366052 10.197334274649615 5.9823600947856885 3.2264386117458344 1.774888515472411
leaf_count=14 3 63 15 18 7
internal_value=0 -0.0224388 0.0180234 0 -0.0320404
internal_weight=29.8024 13.6221 16.1803 9.2088 11.9722
internal_count=120 73 47 33 70
is_linear=0
shrinkage=0.05


Tree=61
num_leaves=8
num_cat=0
split_feature=25 15 22 1 6 35 1
split_gain=1.68822 1.33087 1.00622 1.42155 0.691741 1.40752 0.470373
threshold=-0.028305000999999996 0.45000000000000007 0.16150000000000003 -0.14791016111111108 1.5000000000000002 0.19808212344213547 22.177041134583337
decision_type=2 2 2 2 2 2 2
left_child=-1 2 3 -2 -5 -6 -7
right_child=1 -3 -4 4 5 6 -8
leaf_value=-0.032079754642117264 0.034800906770364959 -0.02213187940318808 -0.0084532097253125094 -0.0075831343185277251 0.03637235858630334 -0.015641995919244225 0.012186573871933875
leaf_weight=3.4958916008472434 6.1248805522918763 3.5869927853345862 4.9183333516120902 5.524522781372073 3.783555790781973 3.0757724642753601 2.5860345214605331
leaf_count=12 22 19 17 16 14 11 9
internal_value=0 0.0041842 0.0088412 0.0140739 0.00375986 0.0130233 0
internal_weight=33.096 29.6001 26.0131 21.0948 14.9699 9.44536 5.66181
internal_count=120 108 89 72 50 34 20
is_linear=0
shrinkage=0.05


Tree=62
num_leaves=8
num_cat=0
split_feature=15 25 15 37 28 2 24
split_gain=5.88287 1.84707 1.83222 2.34184 0.859053 0.0624019 0.0281472
threshold=0.25000000000000006 0.32083001000000005 0.55000000000000016 246.45826797485356 2.1350000000000002 72.308503901388903 0.66045000000000009
decision_type=2 2 2 2 2 2 2
left_child=6 2 3 4 -2 -3 -1
right_child=1 5 -4 -5 -6 -7 -8
leaf_value=-0.035362360975471546 -0.037728057334279592 0.012472886732070587 0.033335666828477599 0.025863982215935385 0 0.045343605649422719 -0.0034323973011214227
leaf_weight=7.8271942362189311 4.4346373826265353 2.9734845757484427 3.637292653322219 2.9485680907964706 2.4829771965742111 4.3121106326580048 1.9645146578550337
leaf_count=37 18 10 12 10 10 14 9
internal_value=0 0.0152221 0.00217446 -0.00702424 -0.0247738 0.0356635 -0.0315831
internal_weight=30.5808 20.7891 13.5035 9.86618 6.91761 7.2856 9.79171
internal_count=120 74 50 38 28 24 46
is_linear=0
shrinkage=0.05


Tree=63
num_leaves=5
num_cat=0
split_feature=15 25 25 35
split_gain=4.61124 3.46639 1.79011 0.654236
threshold=0.25000000000000006 -0.096365002499999977 0.30648501000000006 -0.2993235983936261
decision_type=2 2 2 2
left_child=2 -2 3 -1
right_child=1 -3 -4 -5
leaf_value=0.0075939949761973519 0.018397946892086008 -0.036573157192578823 -0.0076068521945874537 0.039452432565908704
leaf_weight=5.2182731777429572 3.2057744860649118 10.355557858943936 3.6249613016843787 6.7605615407228496
leaf_count=16 7 67 16 14
internal_value=0 -0.021709 0.0180031 0.0278216
internal_weight=29.1651 13.5613 15.6038 11.9788
internal_count=120 74 46 30
is_linear=0
shrinkage=0.05


Tree=64
num_leaves=9
num_cat=0
split_feature=25 15 15 36 1 39 26 28
split_gain=1.57058 1.20806 1.11275 1.36405 1.03813 0.723948 0.709786 0.824122
threshold=-0.028305000999999996 0.45000000000000007 -1.0000000180025095e-35 355.11270675659188 7.4673854900000007 -0.38254119338121606 82.092500000000015 1.7500000000000002
decision_type=2 2 2 2 2 2 2 2
left_child=-1 2 -2 4 5 -4 7 -6
right_child=1 -3 3 -5 6 -7 -8 -9
leaf_value=-0.031491183522117321 -0.019002597635692314 -0.021332750118666716 0.042834591907047047 -0.013173671229140769 0 0.0045510081445184368 -0.0099030261786379054 0.035294608874487696
leaf_weight=3.3769307285547248 2.5071763396263185 3.4816956371068946 5.7123521119356155 3.2192306965589514 4.2642510384321195 3.6779734343290382 3.5517706573009491 2.8558517247438431
leaf_count=12 8 19 22 11 14 12 11 11
internal_value=0 0.00403586 0.0084957 0.0125948 0.0180145 0.03068 0.00436768 0.0149876
internal_weight=32.6472 29.2703 25.7886 23.2814 20.0622 9.39033 10.6719 7.1201
internal_count=120 108 89 81 70 34 36 25
is_linear=0
shrinkage=0.05


Tree=65
num_leaves=7
num_cat=0
split_feature=15 25 15 34 2 17
split_gain=5.49907 1.72996 1.72787 0.625993 0.0530407 0.0402687
threshold=0.25000000000000006 0.32083001000000005 0.35000000000000003 0.77633343108749397 72.308503901388903 7.5000000000000009
decision_type=2 2 2 2 2 2
left_child=5 2 -2 -4 -3 -1
right_child=1 4 3 -5 -6 -7
leaf_value=-0.03495389994827116 -0.021231753288387042 0.011810070280441105 0 0.026668088624693914 0.044203521657510222 -0.0025774203686944122
leaf_weight=7.5680373087525386 4.3680290877819088 2.9489721655845633 3.5065665841102582 5.4127819836139679 4.2238020747900009 1.9140528738498686
leaf_count=37 19 10 13 18 14 9
internal_value=0 0.0147388 0.00193443 0.0161609 0.0346685 -0.0311225
internal_weight=29.9422 20.4602 13.2874 8.91935 7.17277 9.48209
internal_count=120 74 50 31 24 46
is_linear=0
shrinkage=0.05


Tree=66
num_leaves=6
num_cat=0
split_feature=15 36 33 0 33
split_gain=4.34425 3.89226 2.8505 1.87012 0.796397
threshold=-0.14999999999999999 104.10567474365236 52.946788732445746 4.5000000000000009 80.833957935606165
decision_type=2 2 2 2 2
left_child=-1 2 -2 -4 -3
right_child=1 4 3 -5 -6
leaf_value=0.039452477252123877 0.038117797310782832 -0.037181982519221148 0.013196540245694359 -0.035160236577518017 0
leaf_weight=5.4001266360282925 4.955640062689783 9.4244616180658323 3.1702743023633957 3.7343056425452232 1.911447912454604
leaf_count=11 10 60 9 20 10
internal_value=0 -0.00993556 0.00844893 -0.00951646 -0.0312622
internal_weight=28.5963 23.1961 11.8602 6.90458 11.3359
internal_count=120 109 39 29 70
is_linear=0
shrinkage=0.05


Tree=67
num_leaves=8
num_cat=0
split_feature=25 15 22 24 1 34 36
split_gain=1.4738 1.11243 0.926802 1.30496 1.31964 0.568631 1.15898
threshold=-0.028305000999999996 0.45000000000000007 0.16150000000000003 0.70756000000000008 -0.14791016111111108 0.85996718715658471 120.4237503051758
decision_type=2 2 2 2 2 2 2
left_child=-1 2 3 4 -2 6 -6
right_child=1 -3 -4 -5 5 -7 -8
leaf_value=-0.030960920802495795 0.028009355723892199 -0.020634997360021532 -0.0083684732704600966 0.047421804509322284 -0.0030645729763940114 -0.014558073135113245 0.034302605054150739
leaf_weight=3.270930901169776 5.1798442751169302 3.3920309394597998 4.8522971272468558 2.6289180219173423 5.2664511352777499 5.0597087740898132 2.5983793437480927
leaf_count=12 19 19 17 10 15 18 10
internal_value=0 0.00394785 0.0082479 0.0133582 0.00680524 0 0.00641766
internal_weight=32.2486 28.9776 25.5856 20.7333 18.1044 12.9245 7.86483
internal_count=120 108 89 72 62 43 25
is_linear=0
shrinkage=0.05


Tree=68
num_leaves=6
num_cat=0
split_feature=15 25 15 34 24
split_gain=5.16173 1.61118 1.59565 0.576253 0.0484175
threshold=0.25000000000000006 0.32083001000000005 0.35000000000000003 0.77633343108749397 0.66045000000000009
decision_type=2 2 2 2 2
left_child=4 2 -2 -4 -1
right_child=1 -3 3 -5 -6
leaf_value=-0.034638929874403916 -0.020579465422926185 0.033673832201659433 0 0.025723334682121426 -0.0021314537720538234
leaf_weight=7.3019168600440043 4.3019330352544811 7.0619508922100058 3.4814795702695829 5.3516989350318909 1.9038314074277876
leaf_count=37 19 24 13 18 9
internal_value=0 0.0142732 0.0017782 0.0155739 -0.0306978
internal_weight=29.4028 20.1971 13.1351 8.83318 9.20575
internal_count=120 74 50 31 46
is_linear=0
shrinkage=0.05


Tree=69
num_leaves=6
num_cat=0
split_feature=15 36 33 0 33
split_gain=4.04965 3.64129 2.63767 1.76661 0.792305
threshold=-0.14999999999999999 104.10567474365236 52.946788732445746 4.5000000000000009 80.833957935606165
decision_type=2 2 2 2 2
left_child=-1 2 -2 -4 -3
right_child=1 4 3 -5 -6
leaf_value=0.038692883886563702 0.036750941800128299 -0.036761464413457824 0.012576176949559054 -0.034649818495307384 0
leaf_weight=5.2442574799060848 4.9163736552000064 9.1011372059583646 3.1487480252981186 3.6432296708226204 1.8914346545934666
leaf_count=11 10 60 9 20 10
internal_value=0 -0.00964942 0.00808843 -0.00926373 -0.0306986
internal_weight=27.9452 22.7009 11.7084 6.79198 10.9926
internal_count=120 109 39 29 70
is_linear=0
shrinkage=0.05


Tree=70
num_leaves=9
num_cat=0
split_feature=25 15 22 35 1 28 25 1
split_gain=1.36957 1.01497 0.883098 1.8083 1.69333 1.25759 0.461388 0.661965
threshold=-0.028305000999999996 0.45000000000000007 0.092500000000000013 1.5895852611659829 -0.14791016111111108 1.2200000000000002 0.11780500000000001 26.350938429583337
decision_type=2 2 2 2 2 2 2 2
left_child=-1 2 4 5 -2 -4 -6 -8
right_child=1 -3 3 -5 6 -7 7 -9
leaf_value=-0.03037367807708399 0.04437844537167969 -0.01989158756588142 0 -0.030995119256268411 -0.0071400243668581775 0.03878575503268334 0 0.031443074985402858
leaf_weight=3.1567673832178142 3.9470117986202302 3.2994526773691168 4.9060699641704542 3.6288332641124725 3.8358227610588056 2.6158125996589661 3.7476632297039032 2.6178838312625885
leaf_count=12 16 19 17 12 11 10 13 10
internal_value=0 0.0038227 0.00796589 -0.000521163 0.0163661 0.0111143 0.00277534 0.0126349
internal_weight=31.7553 28.5986 25.2991 11.1507 14.1484 7.52188 10.2014 6.36555
internal_count=120 108 89 39 50 27 34 23
is_linear=0
shrinkage=0.05


Tree=71
num_leaves=7
num_cat=0
split_feature=15 34 35 20 22 24
split_gain=4.78533 1.47887 2.18232 1.66889 0.225965 0.0634899
threshold=0.25000000000000006 0.46400153885990597 -2.1650867878336788 9.5000000000000018 0.072500000000000009 0.66045000000000009
decision_type=2 2 2 2 2 2
left_child=5 2 -2 4 -3 -1
right_child=1 3 -4 -5 -6 -7
leaf_value=-0.034258099510858009 0.022278983147531677 0.010376080206461599 -0.034688415620616968 -0.0039593604631756275 0.040058749492475121 -0.0012952849226554007
leaf_weight=7.0287068784236926 3.0127826929092407 3.7421435564756376 3.2040894478559521 2.8112872689962378 7.1676226258277893 1.8659701347351072
leaf_count=37 11 14 13 11 25 9
internal_value=0 0.0136844 -0.00320792 0.0231148 0.0323348 -0.0302137
internal_weight=28.8326 19.9379 6.21687 13.7211 10.9098 8.89468
internal_count=120 74 24 50 39 46
is_linear=0
shrinkage=0.05


Tree=72
num_leaves=6
num_cat=0
split_feature=15 28 24 19 28
split_gain=3.78372 3.58481 1.64356 1.45332 0.958219
threshold=-0.14999999999999999 1.0000000180025095e-35 0.34081001000000005 3.5000000000000004 3.6300000000000003
decision_type=2 2 2 2 2
left_child=-1 2 -2 -4 -3
right_child=1 4 3 -5 -6
leaf_value=0.037972879186506152 0.028505021876926481 -0.036524157713944953 -0.031910705735482089 0.01467921917179618 0
leaf_weight=5.0927644073963192 5.6253584176301974 9.2714083418250066 3.1845867112278938 2.559577077627182 1.5354508906602848
leaf_count=11 12 64 19 7 7
internal_value=0 -0.00940787 0.00849456 -0.0069767 -0.0304397
internal_weight=27.2691 22.1764 11.3695 5.74416 10.8069
internal_count=120 109 38 26 71
is_linear=0
shrinkage=0.05


Tree=73
num_leaves=8
num_cat=0
split_feature=25 15 22 24 1 34 36
split_gain=1.2803 0.928248 0.838163 1.17971 1.11859 0.491658 0.981857
threshold=-0.028305000999999996 0.45000000000000007 0.16150000000000003 0.70756000000000008 -0.14791016111111108 0.85996718715658471 120.4237503051758
decision_type=2 2 2 2 2 2 2
left_child=-1 2 3 4 -2 6 -6
right_child=1 -3 -4 -5 5 -7 -8
leaf_value=-0.029834916792316164 0.026102853352254131 -0.019155895173948459 -0.0080684745772357756 0.045439808073834458 -0.0024507518708793944 -0.013757443868316746 0.031992953951296546
leaf_weight=3.0529286712408092 5.0324891656637325 3.2088411748409262 4.7554558515548697 2.5776209682226172 5.1473644375801069 4.9212501794099808 2.5397476255893707
leaf_count=12 19 19 17 10 15 18 10
internal_value=0 0.00373362 0.00773636 0.0127055 0.00628416 0 0.00598339
internal_weight=31.2357 28.1828 24.9739 20.2185 17.6409 12.6084 7.68711
internal_count=120 108 89 72 62 43 25
is_linear=0
shrinkage=0.05


Tree=74
num_leaves=7
num_cat=0
split_feature=15 25 15 24 2 17
split_gain=4.42746 1.47247 1.44949 0.556386 0.0900519 0.0822614
threshold=0.25000000000000006 0.32083001000000005 0.35000000000000003 0.38777500000000004 72.308503901388903 7.5000000000000009
decision_type=2 2 2 2 2 2
left_child=5 2 -2 -4 -3 -1
right_child=1 4 3 -5 -6 -7
leaf_value=-0.03383576524019527 -0.020392400552595894 0.0089532172375250563 0 0.025572915753775523 0.041507750531101922 -0.00018420193573578063
leaf_weight=6.7803255841135996 4.2355699837207821 2.8320051133632651 3.7542535066604596 4.8304090946912766 3.9953677207231522 1.8068108558654783
leaf_count=37 19 10 13 18 14 9
internal_value=0 0.0131161 0.000988478 0.0145295 0.0319371 -0.0297166
internal_weight=28.2347 19.6476 12.8202 8.58466 6.82737 8.58714
internal_count=120 74 50 31 24 46
is_linear=0
shrinkage=0.05


Tree=75
num_leaves=5
num_cat=0
split_feature=15 25 28 28
split_gain=3.61122 2.85582 1.43561 1.47075
threshold=0.25000000000000006 -0.096365002499999977 0.42000000000000004 2.9000000000000008
decision_type=2 2 2 2
left_child=2 -2 -1 -4
right_child=1 -3 3 -5
leaf_value=0.030545674182986884 0.015693178842466255 -0.035366058147422295 -0.021464719450729499 0.025498494849108551
leaf_weight=7.937786668539049 3.0512759089469919 9.0792240723967517 3.71302829682827 2.8531952500343323
leaf_count=19 7 67 20 7
internal_value=0 -0.0204554 0.0163637 0
internal_weight=26.6345 12.1305 14.504 6.56622
internal_count=120 74 46 27
is_linear=0
shrinkage=0.05


Tree=76
num_leaves=9
num_cat=0
split_feature=15 15 39 22 25 39 20 37
split_gain=1.15253 1.34428 1.35486 1.11588 1.31121 1.43799 0.992731 0.519719
threshold=-0.14999999999999999 0.45000000000000007 -0.47669022051596582 0.16150000000000003 0.23731499500000003 -0.063413743938382464 4.5000000000000009 227.10537277221684
decision_type=2 2 2 2 2 2 2 2
left_child=-1 2 6 4 5 -4 -2 -8
right_child=1 -3 3 -5 -6 -7 7 -9
leaf_value=-0.028617152725658519 0 -0.021892336724408708 -0.029042658708970787 -0.026429710948367387 0.027671607752599206 0.014688983742923396 0.046784196050970728 0.0033849812507452831
leaf_weight=2.9893016815185574 2.9406706243753487 3.8234197348356238 3.5001562833786055 3.2055306881666175 4.6168012768030167 3.1688564568757949 3.9982247054576874 2.5088591277599335
leaf_count=11 10 23 9 11 19 11 16 10
internal_value=0 0.00355115 0.00872898 0 0.00649752 -0.00465975 0.0233795 0.0341396
internal_weight=30.7518 27.7625 23.9391 14.4913 11.2858 6.66901 9.44775 6.50708
internal_count=120 109 86 50 39 20 36 26
is_linear=0
shrinkage=0.05


Tree=77
num_leaves=7
num_cat=0
split_feature=15 15 36 1 33 24
split_gain=4.12451 1.33897 2.5266 2.2639 0.472096 0.109962
threshold=0.25000000000000006 0.55000000000000016 104.10567474365236 -1.0000000180025095e-35 55.901084434580845 0.66045000000000009
decision_type=2 2 2 2 2 2
left_child=5 2 -2 -4 -5 -1
right_child=1 -3 3 4 -6 -7
leaf_value=-0.033555067936540804 -0.030847585473629219 0.034215015956112871 -0.015286109701629112 0.0029878325449055575 0.042508796629336869 0
leaf_weight=6.5326436460018176 3.6012996435165432 5.3486248403787604 2.8889100700616854 2.6713998913764918 4.879755437374115 1.7706974595785139
leaf_count=37 14 20 13 11 16 9
internal_value=0 0.0126487 0.002482 0.0165345 0.0320166 -0.0292571
internal_weight=27.6933 19.39 14.0414 10.4401 7.55116 8.30334
internal_count=120 74 54 40 27 46
is_linear=0
shrinkage=0.05


Tree=78
num_leaves=7
num_cat=0
split_feature=36 34 16 19 1 18
split_gain=3.2073 2.27684 1.07585 1.04903 0.758006 0.345517
threshold=104.10567474365236 0.46400153885990597 0.72500000000000009 4.5000000000000009 6.0222934100000005 3.5000000000000004
decision_type=2 2 2 2 2 2
left_child=1 4 -2 -4 -1 -3
right_child=2 5 3 -5 -6 -7
leaf_value=0.00035255378608014734 0.004378764173138666 0 -0.035209009870347731 0 0.037691297119049977 -0.027212205047285866
leaf_weight=3.4262138307094592 1.8987398371100415 1.9771578609943383 7.9239932149648649 1.6815299019217489 7.1193521022796631 1.9788499772548673
leaf_count=11 7 8 60 6 16 12
internal_value=0 0.0151355 -0.0200679 -0.0274715 0.0280257 -0.0129062
internal_weight=26.0058 14.5016 11.5043 9.60552 10.5456 3.95601
internal_count=120 47 73 66 27 20
is_linear=0
shrinkage=0.05


Tree=79
num_leaves=8
num_cat=0
split_feature=15 15 6 28 1 16 1
split_gain=1.07895 1.23367 1.30931 1.24576 1.07425 0.911605 0.885128
threshold=-0.14999999999999999 0.35000000000000003 3.5000000000000004 1.1300000000000001 -0.14791016111111108 0.77500000000000013 20.581548134861116
decision_type=2 2 2 2 2 2 2
left_child=-1 2 3 5 -3 -2 -6
right_child=1 4 -4 -5 6 -7 -8
leaf_value=-0.028102063664418017 -0.028825492689688828 0.013629278763031225 0.034184830048068146 0.023520538610954933 -0.035538751803519009 0.0011505563072036458 0
leaf_weight=2.8845832794904736 3.2927495092153602 2.4227475449442863 4.8795483857393256 4.588064268231391 4.082759812474249 4.8460698425769806 3.2524256110191345
leaf_count=11 9 12 19 18 19 16 16
internal_value=0 0.00352034 0.0120512 0.00141569 -0.00930216 -0.00814521 -0.02032
internal_weight=30.2489 27.3644 17.6064 12.7269 9.75793 8.13882 7.33519
internal_count=120 109 62 43 47 25 35
is_linear=0
shrinkage=0.05


Tree=80
num_leaves=7
num_cat=0
split_feature=15 25 15 24 22 2
split_gain=3.84816 1.37178 1.2685 0.508818 0.243346 0.0539887
threshold=0.25000000000000006 0.32083001000000005 0.35000000000000003 0.38777500000000004 0.17250000000000001 72.308503901388903
decision_type=2 2 2 2 2 2
left_child=4 2 -2 -4 -1 -3
right_child=1 5 3 -5 -6 -7
leaf_value=-0.033399430800987381 -0.019846484327367294 0.0083215813530430529 0 0.024131037263595917 0 0.039839296410285933
leaf_weight=6.510994881391527 4.128621473908427 2.7693997323513022 3.6704178452491742 4.6722352355718613 1.5353307276964185 3.8180328905582428
leaf_count=39 19 10 13 18 7 14
internal_value=0 0.0122053 0.0003077 0.0133597 -0.0288201 0.03065
internal_weight=27.105 19.0587 12.4713 8.34265 8.04633 6.58743
internal_count=120 74 50 31 46 24
is_linear=0
shrinkage=0.05


Tree=81
num_leaves=5
num_cat=0
split_feature=15 25 28 28
split_gain=3.13368 2.60348 1.26915 1.26551
threshold=0.25000000000000006 -0.096365002499999977 0.42000000000000004 2.9000000000000008
decision_type=2 2 2 2
left_child=2 -2 -1 -4
right_child=1 -3 3 -5
leaf_value=0.028887148318956057 0.014567812001383053 -0.034766263796698275 -0.020584120593634628 0.023795707823629629
leaf_weight=7.6866261661052722 2.9793846458196649 8.4750396534800494 3.5823363289237022 2.7319636046886444
leaf_count=19 7 67 20 7
internal_value=0 -0.0197554 0.0153553 0
internal_weight=25.4554 11.4544 14.0009 6.3143
internal_count=120 74 46 27
is_linear=0
shrinkage=0.05


Tree=82
num_leaves=8
num_cat=0
split_feature=15 15 39 18 0 20 37
split_gain=1.00774 1.16243 1.25735 0.994403 0.906304 0.857955 0.465669
threshold=-0.14999999999999999 0.45000000000000007 -0.47669022051596582 3.5000000000000004 6.5000000000000009 4.5000000000000009 227.10537277221684
decision_type=2 2 2 2 2 2 2
left_child=-1 2 5 4 -4 -2 -7
right_child=1 -3 3 -5 -6 6 -8
leaf_value=-0.027588947796057008 0 -0.020682786508429474 0 -0.015518249108465396 0.030461087071063958 0.04495037187542654 0.0027126372175587002
leaf_weight=2.7832101732492474 2.8884598910808617 3.6297209039330474 4.4195400923490507 6.3830079287290573 3.3385491520166397 3.8934633433818817 2.4652783125638962
leaf_count=11 10 23 15 21 14 16 10
internal_value=0 0.00346078 0.00834417 0 0.0108484 0.0226108 0.0327411
internal_weight=29.8012 27.018 23.3883 14.1411 7.75809 9.2472 6.35874
internal_count=120 109 86 50 29 36 26
is_linear=0
shrinkage=0.05


Tree=83
num_leaves=7
num_cat=0
split_feature=15 25 15 24 39 2
split_gain=3.58826 1.31395 1.14894 0.476091 0.24289 0.0649752
threshold=0.25000000000000006 0.32083001000000005 0.35000000000000003 0.38777500000000004 0.053126465829823236 72.308503901388903
decision_type=2 2 2 2 2 2
left_child=4 2 -2 -4 -1 -3
right_child=1 5 3 -5 -6 -7
leaf_value=-0.033052961093832871 -0.019267557910739322 0.0075532644088270378 0 0.02310261096639564 0 0.03916914526769142
leaf_weight=6.2851746082305935 4.0655072480440166 2.7378171384334555 3.6433276385068876 4.6143170148134232 1.5162137523293493 3.7374522238969803
leaf_count=37 19 10 13 18 9 14
internal_value=0 0.0117341 8.87965e-07 0.0125957 -0.0283902 0.0299219
internal_weight=26.5998 18.7984 12.3232 8.25764 7.80139 6.47527
internal_count=120 74 50 31 46 24
is_linear=0
shrinkage=0.05


Tree=84
num_leaves=6
num_cat=0
split_feature=15 28 24 2 19
split_gain=2.94515 2.90911 1.26977 0.91918 0.722582
threshold=-0.14999999999999999 1.0000000180025095e-35 0.35448000000000007 153.59623174444448 3.5000000000000004
decision_type=2 2 2 2 2
left_child=-1 2 -2 -3 -4
right_child=1 3 4 -5 -6
leaf_value=0.035544160568437344 0.023089948838840434 -0.035327128125960915 -0.028652787347134182 0 0.0042263808159652104
leaf_weight=4.52325311303139 6.2844104319810885 8.3023025989532453 2.515649326145649 1.3486750721931446 1.9256645292043684
leaf_count=11 15 65 17 6 6
internal_value=0 -0.00862117 0.00748507 -0.0289781 -0.00911287
internal_weight=24.9 20.3767 10.7257 9.65098 4.44131
internal_count=120 109 38 71 23
is_linear=0
shrinkage=0.05


Tree=85
num_leaves=10
num_cat=0
split_feature=15 15 39 22 25 39 20 24 22
split_gain=0.94211 1.07845 1.18322 0.958687 1.14164 1.27009 0.801691 0.424818 0.0127593
threshold=-0.14999999999999999 0.45000000000000007 -0.47669022051596582 0.16150000000000003 0.23731499500000003 -0.063413743938382464 4.5000000000000009 0.58229500000000012 0.16150000000000003
decision_type=2 2 2 2 2 2 2 2 2
left_child=-1 2 6 4 5 -4 -2 -8 -3
right_child=1 8 3 -5 -6 -7 7 -9 -10
leaf_value=-0.027090157796178661 0 -0.025741603927286191 -0.027926689574498093 -0.025219818344718536 0.026133103556098852 0.013538535733764109 0.043859218203180395 0.0025445172135359355 0
leaf_weight=2.6885869801044491 2.8686257004737907 2.163289792835712 3.3830881416797682 3.0656420588493338 4.4536303877830505 3.0984928160905776 3.8222109377384186 2.450462743639946 1.3746086806058881
leaf_count=11 10 13 9 11 19 11 16 10 10
internal_value=0 0.0033957 0.00813225 0 0.00589316 -0.00440141 0.0220549 0.0319355 -0.0200869
internal_weight=29.3686 26.6801 23.1422 14.0009 10.9352 6.48158 9.1413 6.27267 3.5379
internal_count=120 109 86 50 39 20 36 26 23
is_linear=0
shrinkage=0.05


Tree=86
num_leaves=7
num_cat=0
split_feature=15 25 15 20 34 22
split_gain=3.34345 1.23889 1.06071 0.486134 0.328983 0.262211
threshold=0.25000000000000006 0.32083001000000005 0.35000000000000003 6.5000000000000009 0.9352457224969265 0.17250000000000001
decision_type=2 2 2 2 2 2
left_child=5 2 -2 4 -4 -1
right_child=1 -3 3 -5 -6 -7
leaf_value=-0.032763144663027106 -0.018755083086261531 0.029143928974060148 0 0 0.033261155683430702 0
leaf_weight=6.078838191926482 4.0135580003261593 6.3505146801471701 2.8240398168563825 2.5204272866249084 2.8310280442237854 1.4750378280878065
leaf_count=39 19 24 10 11 10 7
internal_value=0 0.0113037 0 0.012066 0.0205067 -0.0279448
internal_weight=26.0934 18.5396 12.1891 8.1755 5.65507 7.55388
internal_count=120 74 50 31 20 46
is_linear=0
shrinkage=0.05


Tree=87
num_leaves=6
num_cat=0
split_feature=15 28 2 25 15
split_gain=2.72585 2.72989 0.89042 0.880849 0.499735
threshold=-0.14999999999999999 1.0000000180025095e-35 153.59623174444448 0.11016500000000001 0.25000000000000006
decision_type=2 2 2 2 2
left_child=-1 3 -3 4 -2
right_child=1 2 -4 -5 -6
leaf_value=0.034824496742604086 0.03158853432685995 -0.034972426161880572 0 -0.010926059952100624 0
leaf_weight=4.3599276542663601 3.536948502063753 8.001998156309126 1.3402792438864697 2.9969852641224861 4.0608068704605103
leaf_count=11 7 65 6 17 14
internal_value=0 -0.00837639 -0.0285256 0.00715385 0.0175826
internal_weight=24.2969 19.937 9.34228 10.5947 7.59776
internal_count=120 109 71 38 21
is_linear=0
shrinkage=0.05


Tree=88
num_leaves=9
num_cat=0
split_feature=25 22 1 35 35 41 28 24
split_gain=0.866591 0.822289 1.46691 0.719273 0.482358 0.420087 0.377752 0.436055
threshold=-1.0000000180025095e-35 0.092500000000000013 -0.14791016111111108 1.5895852611659829 -2.1650867878336788 -0.32999999999999996 2.6950000000000003 0.35448000000000007
decision_type=2 2 2 2 2 2 2 2
left_child=-1 2 -2 4 -3 -6 7 -4
right_child=1 3 6 -5 5 -7 -8 -9
leaf_value=-0.023160656360971445 0.039841193238299565 -0.0088615422895324605 0 -0.021742391448547185 0 0.029188210768684626 -0.0132471054090618 0.018792896284266277
leaf_weight=3.2964021414518383 3.5728218257427242 3.1513831317424774 3.2072052061557752 4.1532589718699455 2.3408554792404175 2.2778706103563291 2.5226007401943207 4.3579495251178741
leaf_count=14 16 13 11 18 10 10 9 19
internal_value=0 0.00366288 0.0125369 -0.00444452 0.0017837 0.0143789 0.000116375 0.00794863
internal_weight=28.8803 25.5839 13.6606 11.9234 7.77011 4.61873 10.0878 7.56515
internal_count=120 106 55 51 33 20 39 30
is_linear=0
shrinkage=0.05


Tree=89
num_leaves=8
num_cat=0
split_feature=15 25 15 37 28 39 2
split_gain=3.12047 1.16168 1.00902 1.75407 0.601458 0.324334 0.0871923
threshold=0.25000000000000006 0.32083001000000005 0.55000000000000016 246.45826797485356 2.1350000000000002 0.32444101555178612 72.308503901388903
decision_type=2 2 2 2 2 2 2
left_child=5 2 3 4 -2 -1 -3
right_child=1 6 -4 -5 -6 -7 -8
leaf_value=-0.032506097161033524 -0.035214704117665065 0.0059396024690550097 0.025592298837300489 0.021972569261183551 0 0 0.037728964806362932
leaf_weight=5.9716033488512066 3.8946745693683642 2.674111694097518 3.1167505234479895 2.6979068219661713 2.3302950710058212 1.3408038094639776 3.5676294565200806
leaf_count=38 18 10 12 10 10 8 14
internal_value=0 0.0109314 0 -0.00678761 -0.0233552 -0.0274977 0.0283602
internal_weight=25.5938 18.2814 12.0396 8.92288 6.22497 7.31241 6.24174
internal_count=120 74 50 38 28 46 24
is_linear=0
shrinkage=0.05


Tree=90
num_leaves=7
num_cat=0
split_feature=36 41 15 15 16 2
split_gain=2.55273 1.17829 1.04562 0.774593 0.771703 0.0635144
threshold=104.10567474365236 -1.0000000180025095e-35 0.075000000000000025 0.075000000000000025 0.72500000000000009 119.7957677238889
decision_type=2 2 2 2 2 2
left_child=1 5 -2 -3 -4 -1
right_child=2 3 4 -5 -6 -7
leaf_value=0.0086423054567369359 0.0047749857636345001 0.016981178883221405 0 -0.019238400444013409 -0.033985197454619559 0.035546083001920054
leaf_weight=3.6769144982099533 1.8639018982648838 2.3329007625579852 1.3564070016145686 3.2365994453430176 7.0886319316923618 4.173723392188549
leaf_count=12 6 6 6 19 61 10
internal_value=0 0.0138074 -0.0191176 0 -0.0273108 0.0263571
internal_weight=23.7291 13.4201 10.3089 5.5695 8.44504 7.85064
internal_count=120 47 73 25 67 22
is_linear=0
shrinkage=0.05


Tree=91
num_leaves=9
num_cat=0
split_feature=25 20 24 24 22 1 28 34
split_gain=0.911863 0.575728 1.32157 0.888828 1.11974 0.805812 0.743578 0.641778
threshold=-0.028305000999999996 6.5000000000000009 0.59545000000000015 0.32741499000000007 0.13500000000000004 -0.67764946986111096 2.0950000000000002 0.85996718715658471
decision_type=2 2 2 2 2 2 2 2
left_child=-1 3 5 6 7 -3 -2 -5
right_child=1 2 -4 4 -6 -7 -8 -9
leaf_value=-0.027258679658304197 -0.032844032940584085 0 -0.0070010758961895209 0.034709575238577844 -0.011903472012182559 0.041972880184725593 0 0
leaf_weight=2.5792503058910397 3.2949682474136415 2.6068194061517715 3.2503590881824493 3.5030054301023466 3.4339432120323181 3.7959201857447606 3.1108489185571671 2.8452318906784058
leaf_count=12 11 9 13 15 16 18 13 13
internal_value=0 0.00333706 0.0132384 -0.00107741 0.00665496 0.0273072 -0.0166489 0.0205997
internal_weight=28.4203 25.8411 9.6531 16.188 9.78218 6.40274 6.40582 6.34824
internal_count=120 108 40 68 44 27 24 28
is_linear=0
shrinkage=0.05


Tree=92
num_leaves=8
num_cat=0
split_feature=15 25 15 37 28 39 2
split_gain=2.91466 1.08637 0.934064 1.64046 0.577495 0.320955 0.082632
threshold=0.25000000000000006 0.32083001000000005 0.55000000000000016 246.45826797485356 2.1350000000000002 0.32444101555178612 72.308503901388903
decision_type=2 2 2 2 2 2 2
left_child=5 2 3 4 -2 -1 -3
right_child=1 6 -4 -5 -6 -7 -8
leaf_value=-0.03215809995975321 -0.034686715645881078 0.0054812450881430779 0.024832917843062557 0.021105318850768749 0 0 0.036973722754388254
leaf_weight=5.7401826977729824 3.7990573346614855 2.6563704013824454 3.0645571351051322 2.6777836978435516 2.3121927231550217 1.327322259545326 3.4764107316732407
leaf_count=38 18 10 12 10 10 8 14
internal_value=0 0.0106449 0 -0.00656971 -0.0228657 -0.0270312 0.0276508
internal_weight=25.0539 17.9864 11.8536 8.78903 6.11125 7.0675 6.13278
internal_count=120 74 50 38 28 46 24
is_linear=0
shrinkage=0.05


Tree=93
num_leaves=6
num_cat=0
split_feature=15 28 24 28 19
split_gain=2.44994 2.44429 1.03024 0.862631 0.62834
threshold=-0.14999999999999999 1.0000000180025095e-35 0.35448000000000007 3.6300000000000003 3.5000000000000004
decision_type=2 2 2 2 2
left_child=-1 2 -2 -3 -4
right_child=1 3 4 -5 -6
leaf_value=0.033876517888066227 0.021036098298063521 -0.034588391894910288 -0.027484680899134951 0 0.0031967976831179094
leaf_weight=4.1317603290081051 6.0383705943822878 7.4985255226492864 2.3559637144207954 1.3349491655826566 1.8584371507167814
leaf_count=11 15 64 17 7 6
internal_value=0 -0.00813081 0.00655735 -0.02786 -0.00839993
internal_weight=23.218 19.0862 10.2528 8.83347 4.2144
internal_count=120 109 38 71 23
is_linear=0
shrinkage=0.05


Tree=94
num_leaves=9
num_cat=0
split_feature=25 22 1 35 28 25 24 39
split_gain=0.845706 0.548847 1.50902 0.671535 0.918916 0.469659 0.35108 0.383109
threshold=-0.028305000999999996 0.092500000000000013 -0.14791016111111108 1.5895852611659829 1.2200000000000002 0.20770500500000003 0.32741499000000007 -0.47669022051596582
decision_type=2 2 2 2 2 2 2 2
left_child=-1 2 -2 4 5 -3 -4 -8
right_child=1 3 6 -5 -6 -7 7 -9
leaf_value=-0.026716572979444499 0.038564181708735469 0.0043997873124605709 -0.010042570684034772 -0.020503462268088794 0.029098991982272771 -0.019985641105256552 0.02340042925913248 0
leaf_weight=2.4962365180254009 3.4557836353778866 2.2441215068101865 4.2792051881551725 4.0276401117444038 2.5062151551246643 3.1058984845876694 2.4454092383384722 3.4720339775085431
leaf_count=12 16 10 16 18 11 13 11 13
internal_value=0 0.00319157 0.0104979 -0.00313346 0.00277517 -0.00527673 0 0.00851253
internal_weight=28.0325 25.5363 13.6524 11.8839 7.85624 5.35002 10.1966 5.91744
internal_count=120 108 56 52 34 23 40 24
is_linear=0
shrinkage=0.05


Tree=95
num_leaves=7
num_cat=0
split_feature=15 25 15 20 39 2
split_gain=2.75787 1.02028 0.875011 0.464131 0.315948 0.0751396
threshold=0.25000000000000006 0.32083001000000005 0.35000000000000003 6.5000000000000009 0.32444101555178612 72.308503901388903
decision_type=2 2 2 2 2 2
left_child=4 2 -2 -4 -1 -3
right_child=1 5 3 -5 -6 -7
leaf_value=-0.031852268138247396 -0.017513869282190994 0.0051339739336412216 0.019754249738321503 0 0 0.036311124687587501
leaf_weight=5.5570057556033161 3.8144397661089915 2.6347613930702201 5.4022773504257202 2.440991222858429 1.3204526156187055 3.3976060599088669
leaf_count=38 19 10 20 11 8 14
internal_value=0 0.0104565 0 0.0111461 -0.0266338 0.0270764
internal_weight=24.5675 17.6901 11.6577 7.84327 6.87746 6.03237
internal_count=120 74 50 31 46 24
is_linear=0
shrinkage=0.05


Tree=96
num_leaves=5
num_cat=0
split_feature=15 25 25 39
split_gain=2.32313 2.08472 0.956783 0.0213545
threshold=0.25000000000000006 -0.096365002499999977 0.30648501000000006 -0.30181002848707389
decision_type=2 2 2 2
left_child=2 -2 3 -1
right_child=1 -3 -4 -5
leaf_value=0.027255624954487686 0.011773391655277979 -0.033550474694679068 -0.0053117975078547201 0.005395635924414461
leaf_weight=6.133793205022811 2.8060274422168732 7.2187281064689142 2.8873503208160392 3.6360004544258144
leaf_count=18 7 67 16 12
internal_value=0 -0.0184037 0.0136548 0.0217901
internal_weight=22.6819 10.0248 12.6571 9.76979
internal_count=120 74 46 30
is_linear=0
shrinkage=0.05


Tree=97
num_leaves=9
num_cat=0
split_feature=2 15 15 35 24 22 34 1
split_gain=0.72742 0.809851 0.585921 0.812262 0.633291 0.571253 0.534963 0.370869
threshold=48.09292773138889 0.35000000000000003 0.075000000000000025 1.8040106929223649 0.59545000000000015 0.096000000000000016 -0.045447403269645574 20.581548134861116
decision_type=2 2 2 2 2 2 2 2
left_child=5 2 -2 4 6 -1 -4 -3
right_child=1 7 3 -5 -6 -7 -8 -9
leaf_value=0.02973483487277432 -0.015675305906197295 -0.028653838996710673 0.00032341864498456187 -0.01094530758191033 0 0 0.040600338042746188 0
leaf_weight=3.2427380979061153 3.1282672733068493 3.8258125409483901 2.9716922193765658 2.902892440557479 3.4834751635789871 2.2503414899110794 3.1046475619077647 2.6562775075435638
leaf_count=14 13 21 10 11 13 10 13 15
internal_value=0 -0.00362375 0.00112074 0.00741795 0.0156377 0.0165253 0.0252744 -0.0186772
internal_weight=27.5661 22.0731 15.591 12.4627 9.55981 5.49308 6.07634 6.48209
internal_count=120 96 60 47 36 24 23 36
is_linear=0
shrinkage=0.05


Tree=98
num_leaves=7
num_cat=0
split_feature=15 15 36 4 34 22
split_gain=2.56763 0.961434 1.84815 0.918019 0.596449 0.311186
threshold=0.25000000000000006 0.55000000000000016 104.10567474365236 1.0000000180025095e-35 0.9352457224969265 0.17250000000000001
decision_type=2 2 2 2 2 2
left_child=5 2 -2 4 -4 -1
right_child=1 -3 3 -5 -6 -7
leaf_value=-0.031578686591087236 -0.028962089626912754 0.029701102313969607 0 -0.0039126048423753484 0.036496052891670343 0
leaf_weight=5.3274555429816273 3.2397928088903454 4.6365074515342704 2.8118343949317914 2.686277948319912 4.0836140215396881 1.3296103924512861
leaf_count=39 14 20 13 12 15 7
internal_value=0 0.010082 0.000877593 0.0137442 0.0241541 -0.0261888
internal_weight=24.1151 17.458 12.8215 9.58173 6.89545 6.65707
internal_count=120 74 54 40 28 46
is_linear=0
shrinkage=0.05


Tree=99
num_leaves=6
num_cat=0
split_feature=15 36 34 16 1
split_gain=2.18689 2.20789 1.41865 0.760287 0.393564
threshold=-0.14999999999999999 104.10567474365236 0.46400153885990597 0.72500000000000009 22.177041134583337
decision_type=2 2 2 2 2
left_child=-1 2 4 -3 -2
right_child=1 3 -4 -5 -6
leaf_value=0.032961496535621325 0 0 -0.018257645941720312 -0.034007814688656816 0.031161532209733514
leaf_weight=3.9089446067810085 3.1691784709692019 1.314124584197996 3.0302274376153946 6.9617335982620716 3.8669721633195877
leaf_count=11 11 6 19 64 9
internal_value=0 -0.00776393 0.00599182 -0.0273523 0.020048
internal_weight=22.2512 18.3422 10.0664 8.27586 7.03615
internal_count=120 109 39 70 20
is_linear=0
shrinkage=0.05


Tree=100
num_leaves=10
num_cat=0
split_feature=15 15 39 22 18 33 20 37 22
split_gain=0.688418 0.771138 0.956428 0.761056 0.835011 0.796661 0.619293 0.335825 0.0567831
threshold=-0.14999999999999999 0.45000000000000007 -0.47669022051596582 0.16150000000000003 3.5000000000000004 50.014003617031825 4.5000000000000009 227.10537277221684 0.16150000000000003
decision_type=2 2 2 2 2 2 2 2 2
left_child=-1 2 6 4 5 -4 -2 -8 -3
right_child=1 8 3 -5 -6 -7 7 -9 -10
leaf_value=-0.024922209919307024 0 -0.023810200315059774 0.040275356039513904 -0.023542379762338028 -0.0083015433470969707 0 0.040210167848722125 0.00075679892663117125 0
leaf_weight=2.3199726939201382 2.6842829883098656 1.949292786419391 2.3928932994604093 2.8615427911281577 4.2048093676567078 3.7184833139181137 3.551190122961998 2.3007186949253082 1.2381794601678846
leaf_count=11 10 13 11 11 13 15 16 10 10
internal_value=0 0.00295261 0.00718448 0 0.00500785 0.0181762 0.0201803 0.0291725 -0.0176131
internal_weight=27.2214 24.9014 21.7139 13.1777 10.3162 6.11138 8.53619 5.85191 3.18747
internal_count=120 109 86 50 39 26 36 26 23
is_linear=0
shrinkage=0.05


Tree=101
num_leaves=7
num_cat=0
split_feature=15 15 40 33 20 39
split_gain=2.37932 0.903428 1.71812 0.89457 0.352121 0.319605
threshold=0.25000000000000006 0.55000000000000016 7.1717650693808812 55.901084434580845 6.5000000000000009 0.32444101555178612
decision_type=2 2 2 2 2 2
left_child=5 2 3 -2 -5 -1
right_child=1 -3 -4 4 -6 -7
leaf_value=-0.031218404842875309 -0.028601196180164684 0.028912590916564115 0.031217367369419671 0.012755501274154001 -0.011620082058219411 0
leaf_weight=5.1790583692491081 3.5188666731119174 4.5127405077219001 3.5698914229869834 3.5512063205242157 2.01988635212183 1.2797696590423582
leaf_count=38 17 20 13 14 10 8
internal_value=0 0.00963182 0.000626978 -0.00887536 0 -0.0257411
internal_weight=23.6314 17.1726 12.6599 9.08996 5.57109 6.45883
internal_count=120 74 54 41 24 46
is_linear=0
shrinkage=0.05


Tree=102
num_leaves=6
num_cat=0
split_feature=15 36 33 37 16
split_gain=2.01728 2.07623 1.57796 1.08387 0.741232
threshold=-0.14999999999999999 104.10567474365236 52.946788732445746 30.829350013732913 0.72500000000000009
decision_type=2 2 2 2 2
left_child=-1 2 -2 -4 -3
right_child=1 4 3 -5 -6
leaf_value=0.032322210253552565 0.029511619976225718 0 0.0082466382571592441 -0.030809164078111656 -0.033670786369398346
leaf_weight=3.7603125274181393 4.3476446643471736 1.3054866045713405 2.5842339843511581 2.9924380630254745 6.7067298367619514
leaf_count=11 10 6 8 21 64
internal_value=0 -0.00748399 0.00579767 -0.00848024 -0.0268857
internal_weight=21.6968 17.9365 9.92432 5.57667 8.01222
internal_count=120 109 39 29 70
is_linear=0
shrinkage=0.05


Tree=103
num_leaves=9
num_cat=0
split_feature=25 20 24 24 22 1 28 34
split_gain=0.707842 0.470032 1.14894 0.78038 0.898813 0.767769 0.625126 0.526672
threshold=-0.028305000999999996 6.5000000000000009 0.59545000000000015 0.32741499000000007 0.13500000000000004 -0.67764946986111096 2.0950000000000002 0.85996718715658471
decision_type=2 2 2 2 2 2 2 2
left_child=-1 3 5 6 7 -3 -2 -5
right_child=1 2 -4 4 -6 -7 -8 -9
leaf_value=-0.025413850814741675 -0.031527764614634385 0 -0.0067141778304344001 0.032430677076084026 -0.010200175008531926 0.040127710586014664 0 0
leaf_weight=2.2941692844033268 3.0736019611358669 2.486205667257309 3.0958195403218269 3.314487159252165 3.2216662168502808 3.6461790725588781 2.9320617616176605 2.6952220425009727
leaf_count=12 11 9 13 15 16 18 13 13
internal_value=0 0.00301496 0.0121829 -0.000950717 0.00632297 0.0256887 -0.0161462 0.0192945
internal_weight=26.7594 24.4652 9.2282 15.237 9.23138 6.13238 6.00566 6.00971
internal_count=120 108 40 68 44 27 24 28
is_linear=0
shrinkage=0.05


Tree=104
num_leaves=6
num_cat=0
split_feature=15 25 15 20 33
split_gain=2.20785 0.929264 0.723823 0.421756 0.38145
threshold=0.25000000000000006 0.32083001000000005 0.35000000000000003 6.5000000000000009 77.49565787200801
decision_type=2 2 2 2 2
left_child=4 2 -2 -4 -1
right_child=1 -3 3 -5 -6
leaf_value=-0.031103376961130753 -0.017049752265698402 0.025499716782993089 0.018350858975750818 0 0
leaf_weight=5.0802617073059109 3.6753721758723277 5.7208479940891257 5.1455799043178558 2.3318495526909828 1.1697957813739774
leaf_count=39 19 24 20 11 7
internal_value=0 0.00928006 0 0.00969401 -0.025279
internal_weight=23.1237 16.8736 11.1528 7.47743 6.25006
internal_count=120 74 50 31 46
is_linear=0
shrinkage=0.05


Tree=105
num_leaves=6
num_cat=0
split_feature=15 28 33 24 19
split_gain=1.87915 2.02951 0.846749 0.808359 0.503397
threshold=-0.14999999999999999 1.0000000180025095e-35 39.771214222652041 0.35448000000000007 3.5000000000000004
decision_type=2 2 2 2 2
left_child=-1 3 -3 -2 -5
right_child=1 2 -4 4 -6
leaf_value=0.031755959079708553 0.019304275332606938 0 -0.033606836493064 -0.025649710978209367 0.0017754828465545904
leaf_weight=3.6301661133766201 5.7422774434089678 1.1325180940330017 6.7756895050406456 2.1156915500760083 1.7554636448621748
leaf_count=11 15 6 65 17 6
internal_value=0 -0.00728896 -0.0265586 0.00609912 -0.0071862
internal_weight=21.1518 17.5216 7.90821 9.61343 3.87116
internal_count=120 109 71 38 23
is_linear=0
shrinkage=0.05


Tree=106
num_leaves=9
num_cat=0
split_feature=2 15 35 36 2 22 33 24
split_gain=0.650128 0.671049 0.482381 0.766676 0.578447 0.481649 0.318628 0.191458
threshold=48.09292773138889 0.35000000000000003 -0.2993235983936261 120.4237503051758 123.35274360166669 0.096000000000000016 85.214862883780981 0.34081001000000005
decision_type=2 2 2 2 2 2 2 2
left_child=5 2 3 -2 7 -1 -3 -4
right_child=1 6 4 -5 -6 -7 -8 -9
leaf_value=0.028180375841199441 0 -0.024697309020356634 -0.026387500190782922 0.033107314371124803 0.0058150806888875159 0 0 0
leaf_weight=3.1447772830724743 2.6168526858091381 4.356006294488906 2.6723484694957715 2.6168392300605774 4.2762933373451233 2.1717756986618042 1.7971364334225652 2.7022909075021744
leaf_count=14 10 25 9 12 17 10 11 12
internal_value=0 -0.00345728 0.00076964 0.0141055 -0.00396902 0.0159192 -0.0175291 -0.0162842
internal_weight=26.3543 21.0378 14.8846 5.23369 9.65093 5.31655 6.15314 5.37464
internal_count=120 96 60 22 38 24 36 21
is_linear=0
shrinkage=0.05


Tree=107
num_leaves=6
num_cat=0
split_feature=34 22 20 2 2
split_gain=1.82404 1.33909 0.962718 0.750662 0.561319
threshold=0.46400153885990597 0.16150000000000003 8.5000000000000018 48.09292773138889 137.22156156916671
decision_type=2 2 2 2 2
left_child=1 -1 3 -2 -5
right_child=2 -3 -4 4 -6
leaf_value=-0.033340040624792899 0 0 -0.0078561418428457815 0.03366661678842555 0
leaf_weight=5.4184220135211962 1.964239053428172 3.6152659431099892 3.0889443680644026 6.3085418492555601 2.3231894075870514
leaf_count=38 10 16 15 28 13
internal_value=0 -0.017466 0.0113435 0.0192991 0.0259068
internal_weight=22.7186 9.03369 13.6849 10.596 8.63173
internal_count=120 54 66 51 41
is_linear=0
shrinkage=0.05


Tree=108
num_leaves=5
num_cat=0
split_feature=15 25 25 2
split_gain=1.80536 1.74618 0.781563 0.0630163
threshold=0.25000000000000006 -0.096365002499999977 0.30648501000000006 119.36127487930557
decision_type=2 2 2 2
left_child=2 -2 3 -1
right_child=1 -3 -4 -5
leaf_value=0.0072891966662076875 0.010011449741764371 -0.032487262406554057 -0.0045889521297061021 0.029457430685514065
leaf_weight=5.0072432234883326 2.649561807513237 6.3145955987274629 2.6602038964629164 4.0661341547966003
leaf_count=19 7 67 16 11
internal_value=0 -0.0171958 0.0124463 0.0201617
internal_weight=20.6977 8.96416 11.7336 9.07338
internal_count=120 74 46 30
is_linear=0
shrinkage=0.05


Tree=109
num_leaves=8
num_cat=0
split_feature=25 22 1 35 2 24 39
split_gain=0.624746 0.432145 1.21556 0.493808 0.621727 0.223969 0.316427
threshold=-0.028305000999999996 0.092500000000000013 -0.14791016111111108 1.5895852611659829 68.777002773888896 0.32741499000000007 -0.39377337772707005
decision_type=2 2 2 2 2 2 2
left_child=-1 2 -2 4 -3 -4 -7
right_child=1 3 5 -5 -6 6 -8
leaf_value=-0.024514931465641945 0.035905077265086294 -0.010095668808832624 -0.008336814132354986 -0.018230642130450558 0.017096059505439617 0.019955611780327696 0
leaf_weight=2.1713886335492161 3.1850747168064144 3.1669463664293271 3.9595130234956724 3.7637974694371223 4.186111144721508 2.5840061753988284 2.9761818647384626
leaf_count=12 16 15 16 18 19 13 11
internal_value=0 0.00286825 0.00966508 -0.00268755 0.00205199 0 0.00700538
internal_weight=25.993 23.8216 12.7048 11.1169 7.35306 9.5197 5.56019
internal_count=120 108 56 52 34 40 24
is_linear=0
shrinkage=0.05


Tree=110
num_leaves=7
num_cat=0
split_feature=15 25 15 20 33 2
split_gain=1.93849 0.853378 0.651262 0.388711 0.360018 0.0999071
threshold=0.25000000000000006 0.32083001000000005 0.35000000000000003 6.5000000000000009 77.49565787200801 72.308503901388903
decision_type=2 2 2 2 2 2
left_child=4 2 -2 -4 -1 -3
right_child=1 5 3 -5 -6 -7
leaf_value=-0.030499105414763361 -0.016640958826258014 0.0023036367867463078 0.017565698104956881 0 0 0.033761198100977566
leaf_weight=4.748884309083226 3.6011416837573069 2.4645364731550208 5.0044868141412735 2.3043600097298622 1.1618577763438223 3.0631933808326721
leaf_count=39 19 10 20 11 7 14
internal_value=0 0.00864465 0 0.00902332 -0.0245082 0.0244683
internal_weight=22.3485 16.4377 10.91 7.30885 5.91074 5.52773
internal_count=120 74 50 31 46 24
is_linear=0
shrinkage=0.05


Tree=111
num_leaves=6
num_cat=0
split_feature=36 34 0 1 19
split_gain=1.67541 1.60437 0.761998 0.504517 0.361846
threshold=104.10567474365236 0.62356930592563675 9.5000000000000018 6.0222934100000005 3.5000000000000004
decision_type=2 2 2 2 2
left_child=1 3 4 -1 -2
right_child=2 -3 -4 -5 -6
leaf_value=0 -0.031919051725135837 -0.017876913599621257 0.00077053875043151584 0.031054531451670683 0
leaf_weight=3.0355350896716136 5.1471227928996068 2.5365849509835234 1.786125987768173 6.2052869498729706 1.6182097792625425
leaf_count=11 55 18 8 18 10
internal_value=0 0.0117904 -0.0171258 0.0227146 -0.0254345
internal_weight=20.3289 11.7774 8.55146 9.24082 6.76533
internal_count=120 47 73 29 65
is_linear=0
shrinkage=0.05


Tree=112
num_leaves=10
num_cat=0
split_feature=25 2 2 33 18 25 35 37 2
split_gain=0.584907 0.405657 0.74199 0.842782 1.15368 0.631866 0.411729 0.174737 0.169418
threshold=-0.028305000999999996 48.09292773138889 68.777002773888896 39.771214222652041 4.5000000000000009 0.21927999000000004 1.0787679966982486 91.08840019226075 34.090013942222228
decision_type=2 2 2 2 2 2 2 2 2
left_child=-1 8 -3 -4 5 7 -7 -5 -2
right_child=1 2 3 4 -6 6 -8 -9 -10
leaf_value=-0.024047027409682658 0 -0.01960913063839265 -0.019238717338234696 0.0087682826845785922 -0.0096799421261017995 0.019911512895583697 -0.0077676637094679646 0.05038221590052018 0.024021688157359895
leaf_weight=2.1105305999517467 2.4970513731241253 3.9506386667490032 2.2789776474237433 2.4560640230774862 3.1485206484794608 2.1646722257137299 2.1109129786491394 2.2328851968050003 2.7103589475154877
leaf_count=12 12 18 7 11 16 11 11 10 12
internal_value=0 0.00278933 0 0.00453033 0.0111702 0.0212772 0.000667207 0.0344435 0.015025
internal_weight=25.6606 23.5501 18.3427 14.392 12.1131 8.96453 4.27559 4.68895 5.20741
internal_count=120 108 84 66 59 43 22 21 24
is_linear=0
shrinkage=0.05


Tree=113
num_leaves=7
num_cat=0
split_feature=15 25 15 24 33 2
split_gain=1.80565 0.80957 0.60476 0.352654 0.352241 0.0945576
threshold=0.25000000000000006 0.32083001000000005 0.35000000000000003 0.38777500000000004 77.49565787200801 72.308503901388903
decision_type=2 2 2 2 2 2
left_child=4 2 -2 -4 -1 -3
right_child=1 5 3 -5 -6 -7
leaf_value=-0.030173648950675775 -0.016258000391020318 0.0019430747996043822 0 0.018705290533117456 0 0.033124617110098065
leaf_weight=4.583311419934037 3.556379511952402 2.4435667246580115 3.2661744728684425 3.9786503463983536 1.1564967259764669 2.9818420261144638
leaf_count=39 19 10 13 18 7 14
internal_value=0 0.00832235 0 0.0086175 -0.0240698 0.0238946
internal_weight=21.9664 16.2266 10.8012 7.24482 5.73981 5.42541
internal_count=120 74 50 31 46 24
is_linear=0
shrinkage=0.05


Tree=114
num_leaves=6
num_cat=0
split_feature=15 36 33 0 16
split_gain=1.6407 1.6888 1.29541 0.917592 0.67647
threshold=-0.14999999999999999 104.10567474365236 52.946788732445746 4.5000000000000009 0.72500000000000009
decision_type=2 2 2 2 2
left_child=-1 2 -2 -4 -3
right_child=1 4 3 -5 -6
leaf_value=0.030753349595520049 0.027105009163696216 0 0.0064624745683028798 -0.029941249484029805 -0.032720832287213307
leaf_weight=3.3842574656009701 4.1373744308948535 1.2548046857118595 2.4607193470001221 2.7352721765637398 5.9620096124708652
leaf_count=11 10 6 9 20 64
internal_value=0 -0.00695952 0.00493048 -0.00818412 -0.0256106
internal_weight=19.9344 16.5502 9.33337 5.19599 7.21681
internal_count=120 109 39 29 70
is_linear=0
shrinkage=0.05


Tree=115
num_leaves=9
num_cat=0
split_feature=25 22 1 26 15 24 39 2
split_gain=0.542838 0.403333 1.11213 0.447006 0.577282 0.19625 0.292037 0.0308399
threshold=-0.028305000999999996 0.092500000000000013 -0.14791016111111108 82.092500000000015 0.35000000000000003 0.32741499000000007 -0.39377337772707005 119.36127487930557
decision_type=2 2 2 2 2 2 2 2
left_child=-1 2 -2 4 7 -4 -7 -3
right_child=1 3 5 -5 -6 6 -8 -9
leaf_value=-0.023505694245868364 0.034964643119618846 0.019339602261127395 -0.007803247341797612 -0.018460249072853905 -0.013861554494765012 0.019313817007007836 0 0
leaf_weight=2.0423670858144787 3.0790546685457256 2.6836895644664747 3.8562075123190862 3.3620430082082748 2.4629729464650154 2.5267024263739604 2.9191566407680494 2.3874304592609406
leaf_count=12 16 12 16 15 17 13 11 8
internal_value=0 0.00272349 0.00941409 -0.00262189 0.00132033 0 0.00671044 0.013654
internal_weight=25.3196 23.2773 12.3811 10.8961 7.53409 9.30207 5.44586 5.07112
internal_count=120 108 56 52 37 40 24 20
is_linear=0
shrinkage=0.05


Tree=116
